{"learner":{"attributes":{"scikit_learn":"{\"_estimator_type\": \"classifier\"}"},"feature_names":[],"feature_types":[],"gradient_booster":{"model":{"gbtree_model_param":{"num_parallel_tree":"1","num_trees":"800"},"iteration_indptr":[0,8,16,24,32,40,48,56,64,72,80,88,96,104,112,120,128,136,144,152,160,168,176,184,192,200,208,216,224,232,240,248,256,264,272,280,288,296,304,312,320,328,336,344,352,360,368,376,384,392,400,408,416,424,432,440,448,456,464,472,480,488,496,504,512,520,528,536,544,552,560,568,576,584,592,600,608,616,624,632,640,648,656,664,672,680,688,696,704,712,720,728,736,744,752,760,768,776,784,792,800],"tree_info":[0,1,2,3,4,5,6,7,0,1,2,3,4,5,6,7,0,1,2,3,4,5,6,7,0,1,2,3,4,5,6,7,0,1,2,3,4,5,6,7,0,1,2,3,4,5,6,7,0,1,2,3,4,5,6,7,0,1,2,3,4,5,6,7,0,1,2,3,4,5,6,7,0,1,2,3,4,5,6,7,0,1,2,3,4,5,6,7,0,1,2,3,4,5,6,7,0,1,2,3,4,5,6,7,0,1,2,3,4,5,6,7,0,1,2,3,4,5,6,7,0,1,2,3,4,5,6,7,0,1,2,3,4,5,6,7,0,1,2,3,4,5,6,7,0,1,2,3,4,5,6,7,0,1,2,3,4,5,6,7,0,1,2,3,4,5,6,7,0,1,2,3,4,5,6,7,0,1,2,3,4,5,6,7,0,1,2,3,4,5,6,7,0,1,2,3,4,5,6,7,0,1,2,3,4,5,6,7,0,1,2,3,4,5,6,7,0,1,2,3,4,5,6,7,0,1,2,3,4,5,6,7,0,1,2,3,4,5,6,7,0,1,2,3,4,5,6,7,0,1,2,3,4,5,6,7,0,1,2,3,4,5,6,7,0,1,2,3,4,5,6,7,0,1,2,3,4,5,6,7,0,1,2,3,4,5,6,7,0,1,2,3,4,5,6,7,0,1,2,3,4,5,6,7,0,1,2,3,4,5,6,7,0,1,2,3,4,5,6,7,0,1,2,3,4,5,6,7,0,1,2,3,4,5,6,7,0,1,2,3,4,5,6,7,0,1,2,3,4,5,6,7,0,1,2,3,4,5,6,7,0,1,2,3,4,5,6,7,0,1,2,3,4,5,6,7,0,1,2,3,4,5,6,7,0,1,2,3,4,5,6,7,0,1,2,3,4,5,6,7,0,1,2,3,4,5,6,7,0,1,2,3,4,5,6,7,0,1,2,3,4,5,6,7,0,1,2,3,4,5,6,7,0,1,2,3,4,5,6,7,0,1,2,3,4,5,6,7,0,1,2,3,4,5,6,7,0,1,2,3,4,5,6,7,0,1,2,3,4,5,6,7,0,1,2,3,4,5,6,7,0,1,2,3,4,5,6,7,0,1,2,3,4,5,6,7,0,1,2,3,4,5,6,7,0,1,2,3,4,5,6,7,0,1,2,3,4,5,6,7,0,1,2,3,4,5,6,7,0,1,2,3,4,5,6,7,0,1,2,3,4,5,6,7,0,1,2,3,4,5,6,7,0,1,2,3,4,5,6,7,0,1,2,3,4,5,6,7,0,1,2,3,4,5,6,7,0,1,2,3,4,5,6,7,0,1,2,3,4,5,6,7,0,1,2,3,4,5,6,7,0,1,2,3,4,5,6,7,0,1,2,3,4,5,6,7,0,1,2,3,4,5,6,7,0,1,2,3,4,5,6,7,0,1,2,3,4,5,6,7,0,1,2,3,4,5,6,7,0,1,2,3,4,5,6,7,0,1,2,3,4,5,6,7,0,1,2,3,4,5,6,7,0,1,2,3,4,5,6,7,0,1,2,3,4,5,6,7,0,1,2,3,4,5,6,7,0,1,2,3,4,5,6,7,0,1,2,3,4,5,6,7,0,1,2,3,4,5,6,7,0,1,2,3,4,5,6,7,0,1,2,3,4,5,6,7,0,1,2,3,4,5,6,7,0,1,2,3,4,5,6,7,0,1,2,3,4,5,6,7,0,1,2,3,4,5,6,7,0,1,2,3,4,5,6,7,0,1,2,3,4,5,6,7,0,1,2,3,4,5,6,7,0,1,2,3,4,5,6,7],"trees":[{"base_weights":[-2.7349492E-5,-1.0204609E-1,2.0611682E0,-4.951244E-1,2.833402E-1,3.0864763E0,-2.7767354E-1,-5.523012E-1,-3.498161E-1,1.5643106E0,-2.9173363E-2,-5.0645995E-1,3.7475967E0,3.2242426E-1,-5.6228112E-2,-4.493736E-1,-5.631329E-1,7.669053E-1,-4.2569888E-1,-5.6715023E-2,2.5113945E0,-3.3682585E-1,1.0401263E0,-5.4668467E-2,1.7910449E-2,-4.7668394E-2,3.926078E0,-4.742655E-1,8.627451E-1,-4.8249027E-1,-5.686803E-1,3.8986355E-2,3.5133082E-1,-2.633939E-1,-5.631244E-1,3.107251E0,2.0610306E-1,-5.7068866E-2,-3.7065797E-2,-1.4207497E-1,2.5462382E0,-2.9850746E-2,3.966848E-1,3.259259E-2,-5.183074E-2,-2.9850746E-2,1.6119403E-1,-5.4341167E-2,6.0335197E-2,-3.0163934E-2,-5.7021137E-2,2.0560749E-1,-4.7393363E-2,-4.438649E-2,1.400239E-1,-3.9215688E-2,-5.695001E-2,-5.4409564E-2,3.443838E-1,-5.5463728E-2,1.0785563E-1,2.135433E-1,-4.634599E-2,-5.6551278E-2,1.8110236E-2,3.6772567E-1,-2.470948E-2],"categories":[],"categories_nodes":[],"categories_segments":[],"categories_sizes":[],"default_left":[0,0,0,0,0,0,0,0,0,0,0,0,0,0,0,0,0,0,0,0,0,0,0,0,0,0,0,0,0,0,0,0,0,0,0,0,0,0,0,0,0,0,0,0,0,0,0,0,0,0,0,0,0,0,0,0,0,0,0,0,0,0,0,0,0,0,0],"id":0,"left_children":[1,3,5,7,9,11,13,15,17,19,21,23,25,-1,-1,27,29,31,33,-1,35,37,39,-1,-1,-1,41,43,45,47,49,51,-1,53,55,57,59,-1,61,63,65,-1,-1,-1,-1,-1,-1,-1,-1,-1,-1,-1,-1,-1,-1,-1,-1,-1,-1,-1,-1,-1,-1,-1,-1,-1,-1],"loss_changes":[9.6129114E2,6.5999866E2,5.1785803E2,1.7725891E1,8.807886E2,3.581283E2,6.8216194E1,1.470581E0,5.2166115E1,8.7248145E2,5.8249835E2,7.649245E-1,9.745886E1,0E0,0E0,5.378763E0,3.4960938E-1,7.839249E1,1.2642815E1,0E0,4.0998682E2,9.636792E1,7.0478296E2,0E0,0E0,0E0,2.2153809E1,5.4541245E0,3.2543168E0,6.703171E0,3.5931396E-1,3.4146465E1,0E0,8.012815E1,1.1419678E-1,2.9372217E2,4.205936E1,0E0,5.60181E2,3.0563372E1,5.5072766E2,0E0,0E0,0E0,0E0,0E0,0E0,0E0,0E0,0E0,0E0,0E0,0E0,0E0,0E0,0E0,0E0,0E0,0E0,0E0,0E0,0E0,0E0,0E0,0E0,0E0,0E0],"parents":[2147483647,0,0,1,1,2,2,3,3,4,4,5,5,6,6,7,7,8,8,9,9,10,10,11,11,12,12,15,15,16,16,17,17,18,18,20,20,21,21,22,22,26,26,27,27,28,28,29,29,30,30,31,31,33,33,34,34,35,35,36,36,38,38,39,39,40,40],"right_children":[2,4,6,8,10,12,14,16,18,20,22,24,26,-1,-1,28,30,32,34,-1,36,38,40,-1,-1,-1,42,44,46,48,50,52,-1,54,56,58,60,-1,62,64,66,-1,-1,-1,-1,-1,-1,-1,-1,-1,-1,-1,-1,-1,-1,-1,-1,-1,-1,-1,-1,-1,-1,-1,-1,-1,-1],"split_conditions":[1.9890893E0,-7.424392E-2,3.9104965E-1,-3.8377762E-1,-5.9792924E-1,-6.067873E-1,-1.6866243E0,-3.053959E-1,-6.604258E-1,1.0002394E0,5.0576407E-1,6.599538E-1,-3.6085302E-1,3.2242426E-1,-5.6228112E-2,1.2824433E0,-4.46278E-1,1.265015E0,1.7600878E-1,-5.6715023E-2,5.574022E-1,-3.2882813E-1,-2.5328899E-2,-5.4668467E-2,1.7910449E-2,-4.7668394E-2,-1.2408563E0,-6.604258E-1,-1.0257053E0,1.863012E-1,-2.1640255E0,-7.959067E-1,3.5133082E-1,1.1941716E-1,-6.48745E-1,-1.2241776E0,6.576506E-1,-5.7068866E-2,-2.9808125E-1,-3.2882813E-1,1.3055676E0,-2.9850746E-2,3.966848E-1,3.259259E-2,-5.183074E-2,-2.9850746E-2,1.6119403E-1,-5.4341167E-2,6.0335197E-2,-3.0163934E-2,-5.7021137E-2,2.0560749E-1,-4.7393363E-2,-4.438649E-2,1.400239E-1,-3.9215688E-2,-5.695001E-2,-5.4409564E-2,3.443838E-1,-5.5463728E-2,1.0785563E-1,2.135433E-1,-4.634599E-2,-5.6551278E-2,1.8110236E-2,3.6772567E-1,-2.470948E-2],"split_indices":[39,6,34,6,34,37,2,22,34,1,39,11,34,0,0,35,30,3,7,0,11,34,23,0,0,0,11,34,22,32,2,14,0,23,13,15,0,0,34,34,7,0,0,0,0,0,0,0,0,0,0,0,0,0,0,0,0,0,0,0,0,0,0,0,0,0,0],"split_type":[0,0,0,0,0,0,0,0,0,0,0,0,0,0,0,0,0,0,0,0,0,0,0,0,0,0,0,0,0,0,0,0,0,0,0,0,0,0,0,0,0,0,0,0,0,0,0,0,0,0,0,0,0,0,0,0,0,0,0,0,0,0,0,0,0,0,0],"sum_hessian":[4.5694688E3,4.354875E3,2.1459375E2,2.1557812E3,2.1990938E3,1.4896875E2,6.5625E1,1.5450312E3,6.1075E2,4.305E2,1.7685938E3,2.31875E1,1.2578125E2,4.15625E0,6.146875E1,1.5115625E2,1.393875E3,3.828125E1,5.7246875E2,1.325625E2,2.979375E2,1.3739688E3,3.94625E2,2.209375E1,1.09375E0,5.03125E0,1.2075E2,1.4896875E2,2.1875E0,9.5375E1,1.2985E3,3.10625E1,7.21875E0,2.638125E2,3.0865625E2,2.3646875E2,6.146875E1,7.713125E2,6.0265625E2,2.2159375E2,1.7303125E2,1.09375E0,1.1965625E2,7.4375E0,1.4153125E2,1.09375E0,1.09375E0,9.078125E1,4.59375E0,8.53125E0,1.2899688E3,5.6875E0,2.5375E1,2.3865625E2,2.515625E1,1.334375E1,2.953125E2,1.990625E1,2.165625E2,3.303125E1,2.84375E1,9.821875E1,5.044375E2,9.559375E1,1.26E2,1.229375E2,5.009375E1],"tree_param":{"num_deleted":"0","num_feature":"42","num_nodes":"67","size_leaf_vector":"1"}},{"base_weights":[1.9144645E-4,-3.0840868E-1,8.518119E-1,1.7034894E-2,-5.213533E-1,3.2734072E0,2.7455094E-1,-2.1271491E-1,3.6694477E0,-5.4755867E-1,-1.0085781E-1,3.5712433E0,-4.8442906E-1,-4.2345932E-1,2.1146026E0,-5.394814E-1,8.49565E-1,3.8653765E0,2.7906978E-1,8.888889E-1,-5.506633E-1,3.2558138E0,-5.660599E-2,-3.2E-1,3.669275E0,1.7910449E-2,-5.377532E-2,-4.8149478E-1,1.7562604E0,2.9636612E0,-5.6276646E-2,-5.608917E-1,-1.3619168E-1,3.3667412E0,-4.0158102E-1,6.315789E-2,3.9446846E-1,-4.3795623E-2,1.6119403E-1,2.2702704E-1,-3.9215688E-2,-5.698713E-1,-4.24324E-1,4.938272E-3,3.6226416E-1,1.7910449E-2,-4.6060607E-2,3.709091E0,-3.7894737E-2,7.171904E-1,-5.419063E-1,3.5195196E-1,-4.0268457E-1,3.7584336E0,1.5021096E0,-5.6843486E-2,-4.213135E-2,3.0051813E-1,-5.585965E-2,-5.1651653E-2,3.7853107E-1,5.1555555E-2,-5.5048563E-2,-2.7436823E-2,-5.7108093E-2,3.2289156E-1,-5.369533E-2,3.9045843E-1,2.860465E-1,-5.471448E-2,3.290859E-1,1.1343284E-1,-5.463903E-2,1.7910449E-2,-5.0190117E-2,2.2222223E-2,3.8526776E-1,5.063291E-3,3.0720565E-1],"categories":[],"categories_nodes":[],"categories_segments":[],"categories_sizes":[],"default_left":[0,0,0,0,0,0,0,0,0,0,0,0,0,0,0,0,0,0,0,0,0,0,0,0,0,0,0,0,0,0,0,0,0,0,0,0,0,0,0,0,0,0,0,0,0,0,0,0,0,0,0,0,0,0,0,0,0,0,0,0,0,0,0,0,0,0,0,0,0,0,0,0,0,0,0,0,0,0,0],"id":1,"left_children":[1,3,5,7,9,11,13,15,17,19,21,23,25,27,29,31,33,35,37,39,41,43,-1,45,47,-1,-1,49,51,53,-1,55,57,59,61,-1,-1,-1,-1,-1,-1,63,65,-1,-1,-1,-1,67,-1,69,71,-1,73,75,77,-1,-1,-1,-1,-1,-1,-1,-1,-1,-1,-1,-1,-1,-1,-1,-1,-1,-1,-1,-1,-1,-1,-1,-1],"loss_changes":[1.2014283E3,2.3255212E2,1.6988511E3,1.1152911E3,2.2295898E1,2.635923E2,1.2633959E3,4.345288E2,5.117041E1,9.003723E0,1.8956827E2,8.391626E1,7.354078E-1,9.110016E1,6.165801E2,8.18631E0,9.2903394E2,1.6559326E1,5.8428617E0,8.8535595E0,4.3826904E0,1.7206924E1,0E0,5.211036E-1,3.5520996E1,0E0,0E0,5.077095E1,7.2675415E1,2.3309973E2,0E0,7.168884E-1,6.74447E1,1.6109326E2,2.72769E1,0E0,0E0,0E0,0E0,0E0,0E0,4.335327E-1,1.0682364E2,0E0,0E0,0E0,0E0,2.3618408E1,0E0,1.1182575E2,5.602585E0,0E0,6.274394E-1,4.3291138E1,1.6861368E2,0E0,0E0,0E0,0E0,0E0,0E0,0E0,0E0,0E0,0E0,0E0,0E0,0E0,0E0,0E0,0E0,0E0,0E0,0E0,0E0,0E0,0E0,0E0,0E0],"parents":[2147483647,0,0,1,1,2,2,3,3,4,4,5,5,6,6,7,7,8,8,9,9,10,10,11,11,12,12,13,13,14,14,15,15,16,16,17,17,18,18,19,19,20,20,21,21,23,23,24,24,27,27,28,28,29,29,31,31,32,32,33,33,34,34,41,41,42,42,47,47,49,49,50,50,52,52,53,53,54,54],"right_children":[2,4,6,8,10,12,14,16,18,20,22,24,26,28,30,32,34,36,38,40,42,44,-1,46,48,-1,-1,50,52,54,-1,56,58,60,62,-1,-1,-1,-1,-1,-1,64,66,-1,-1,-1,-1,68,-1,70,72,-1,74,76,78,-1,-1,-1,-1,-1,-1,-1,-1,-1,-1,-1,-1,-1,-1,-1,-1,-1,-1,-1,-1,-1,-1,-1,-1],"split_conditions":[3.5641572E-1,-5.9664404E-1,2.3548126E-1,-2.1529984E-1,2.4603538E-1,1.5908759E0,2.7919436E-1,-7.58679E-1,-3.0197728E-1,-2.1890657E-1,-3.281666E-1,-1.1440127E0,1.9821208E0,1.4941424E-2,6.063565E-1,-7.7830994E-1,-1.0399803E0,-7.8120106E-1,2.712337E-1,-2.968139E-1,6.959881E-3,-6.658033E-1,-5.660599E-2,-1.1038917E0,5.877566E-1,1.7910449E-2,-5.377532E-2,-7.0363146E-1,3.669637E-1,1.5281973E0,-5.6276646E-2,-7.9305977E-1,-1.2350571E0,-8.679415E-1,-9.8598516E-1,6.315789E-2,3.9446846E-1,-4.3795623E-2,1.6119403E-1,2.2702704E-1,-3.9215688E-2,-7.238456E-1,-3.6414224E-1,4.938272E-3,3.6226416E-1,1.7910449E-2,-4.6060607E-2,-5.9540488E-2,-3.7894737E-2,-2.229836E-1,9.530529E-3,3.5195196E-1,-7.5342745E-2,6.451522E-1,1.1274189E0,-5.6843486E-2,-4.213135E-2,3.0051813E-1,-5.585965E-2,-5.1651653E-2,3.7853107E-1,5.1555555E-2,-5.5048563E-2,-2.7436823E-2,-5.7108093E-2,3.2289156E-1,-5.369533E-2,3.9045843E-1,2.860465E-1,-5.471448E-2,3.290859E-1,1.1343284E-1,-5.463903E-2,1.7910449E-2,-5.0190117E-2,2.2222223E-2,3.8526776E-1,5.063291E-3,3.0720565E-1],"split_indices":[7,28,23,7,7,5,39,7,3,29,31,39,5,29,34,7,23,25,21,6,7,31,0,2,34,0,0,21,32,0,0,7,23,11,23,0,0,0,0,0,0,31,3,0,0,0,0,31,0,34,31,0,2,24,39,0,0,0,0,0,0,0,0,0,0,0,0,0,0,0,0,0,0,0,0,0,0,0,0],"split_type":[0,0,0,0,0,0,0,0,0,0,0,0,0,0,0,0,0,0,0,0,0,0,0,0,0,0,0,0,0,0,0,0,0,0,0,0,0,0,0,0,0,0,0,0,0,0,0,0,0,0,0,0,0,0,0,0,0,0,0,0,0,0,0,0,0,0,0,0,0,0,0,0,0,0,0,0,0,0,0],"sum_hessian":[4.5694688E3,3.3545312E3,1.2149375E3,1.3271562E3,2.027375E3,2.3296875E2,9.8196875E2,1.2495E3,7.765625E1,1.9081562E3,1.1921875E2,2.1590625E2,1.70625E1,7.1246875E2,2.695E2,9.559375E2,2.935625E2,7.328125E1,4.375E0,3.5E0,1.9046562E3,1.378125E1,1.054375E2,5.25E0,2.1065625E2,1.09375E0,1.596875E1,6.9475E2,1.771875E1,2.0453125E2,6.496875E1,9.07375E2,4.85625E1,9.690625E1,1.9665625E2,1.96875E0,7.13125E1,3.28125E0,1.09375E0,1.3125E0,2.1875E0,1.65025E3,2.5440625E2,1.53125E0,1.225E1,1.09375E0,4.15625E0,2.086875E2,1.96875E0,3.28125E1,6.619375E2,9.40625E0,8.3125E0,1.3146875E2,7.30625E1,8.579375E2,4.94375E1,5.03125E0,4.353125E1,9.40625E0,8.75E1,2.7125E1,1.6953125E2,7.65625E0,1.6425938E3,6.78125E0,2.47625E2,1.666875E2,4.2E1,2.253125E1,1.028125E1,1.09375E0,6.6084375E2,1.09375E0,7.21875E0,3.5E0,1.2796875E2,3.85E1,3.45625E1],"tree_param":{"num_deleted":"0","num_feature":"42","num_nodes":"79","size_leaf_vector":"1"}},{"base_weights":[-2.7349492E-5,3.9481103E0,-4.860387E-1,3.9699192E0,-4.0366974E-2,4.7942755E-1,-5.2919525E-1,3.979902E-1,-2.9850746E-2,-5.300534E-1,3.780655E0,-1.1423824E-1,-5.637631E-1,-5.671006E-2,9.655172E-1,-2.9850746E-2,3.8998434E-1,3.762208E0,-5.326299E-1,-2.8606862E-1,-5.6956285E-1,-3.4567904E-2,2.0895521E-1,3.8588756E-1,6.5671645E-2,1.5555556E0,-5.6558615E-1,-5.4936373E-1,3.255814E-1,-4.6771377E-1,-5.7097565E-2,2.6526317E-1,-3.4567904E-2,1.7910449E-2,-5.692954E-2,1.7910449E-2,-5.6327987E-2,-5.6057006E-2,2.0895521E-1],"categories":[],"categories_nodes":[],"categories_segments":[],"categories_sizes":[],"default_left":[0,0,0,0,0,0,0,0,0,0,0,0,0,0,0,0,0,0,0,0,0,0,0,0,0,0,0,0,0,0,0,0,0,0,0,0,0,0,0],"id":2,"left_children":[1,3,5,7,-1,9,11,-1,-1,13,15,17,19,-1,21,-1,-1,23,25,27,29,-1,-1,-1,-1,31,33,35,-1,37,-1,-1,-1,-1,-1,-1,-1,-1,-1],"loss_changes":[8.771916E3,4.9157715E1,1.6985199E2,2.2435547E1,0E0,5.8415466E2,5.583069E1,0E0,0E0,8.008408E0,2.1113098E1,4.9003552E2,5.630005E0,0E0,6.06495E0,0E0,0E0,6.3029175E0,1.9630768E1,7.228437E1,2.3986816E-1,0E0,0E0,0E0,0E0,1.0303053E1,8.4490967E-1,8.228607E-1,0E0,1.39272995E1,0E0,0E0,0E0,0E0,0E0,0E0,0E0,0E0,0E0],"parents":[2147483647,0,0,1,1,2,2,3,3,5,5,6,6,9,9,10,10,11,11,12,12,14,14,17,17,18,18,19,19,20,20,25,25,26,26,27,27,29,29],"right_children":[2,4,6,8,-1,10,12,-1,-1,14,16,18,20,-1,22,-1,-1,24,26,28,30,-1,-1,-1,-1,32,34,36,-1,38,-1,-1,-1,-1,-1,-1,-1,-1,-1],"split_conditions":[-9.2945445E-1,2.166623E0,-9.5724404E-1,-5.887207E-1,-4.0366974E-2,-9.130273E-1,-6.696294E-1,3.979902E-1,-2.9850746E-2,-9.3773013E-1,-1.9756953E0,-6.0696507E-1,-9.289205E-1,-5.671006E-2,-1.6866243E0,-2.9850746E-2,3.8998434E-1,-5.536909E-1,-6.3346714E-1,-8.783625E-1,-9.1543204E-1,-3.4567904E-2,2.0895521E-1,3.8588756E-1,6.5671645E-2,-1.6320293E-1,-5.75606E-1,-9.881267E-1,3.255814E-1,-8.489201E-1,-5.7097565E-2,2.6526317E-1,-3.4567904E-2,1.7910449E-2,-5.692954E-2,1.7910449E-2,-5.6327987E-2,-5.6057006E-2,2.0895521E-1],"split_indices":[12,5,4,24,0,31,34,0,0,31,2,24,4,0,2,0,0,6,7,23,4,0,0,0,0,5,7,33,0,19,0,0,0,0,0,0,0,0,0],"split_type":[0,0,0,0,0,0,0,0,0,0,0,0,0,0,0,0,0,0,0,0,0,0,0,0,0,0,0,0,0,0,0,0,0,0,0,0,0,0,0],"sum_hessian":[4.5694688E3,5.000625E2,4.0694062E3,4.9765625E2,2.40625E0,1.736875E2,3.8957188E3,4.965625E2,1.09375E0,1.3365625E2,4.003125E1,2.9990625E2,3.5958125E3,1.3103125E2,2.625E0,1.09375E0,3.89375E1,2.84375E1,2.7146875E2,7.459375E1,3.5212188E3,1.53125E0,1.09375E0,2.734375E1,1.09375E0,3.5E0,2.6796875E2,7.021875E1,4.375E0,5.271875E1,3.4685E3,1.96875E0,1.53125E0,1.09375E0,2.66875E2,1.09375E0,6.9125E1,5.1625E1,1.09375E0],"tree_param":{"num_deleted":"0","num_feature":"42","num_nodes":"39","size_leaf_vector":"1"}},{"base_weights":[-2.7349492E-5,-6.337915E-2,3.9175258E0,-1.4539194E-1,1.9108635E0,3.944178E-1,1.1343284E-1,3.4604162E-2,-5.5803764E-1,3.9284757E-1,6.1825377E-1,-3.5202585E-2,2.9700491E0,-5.6639624E-1,1.0042553E0,2.8010335E0,7.1505182E-3,-5.7080936E-2,2.0970489E-1,-5.3543307E-2,3.927314E-1,-5.7098668E-2,-9.13242E-2,2.825688E-1,-4.556962E-2,3.2825112E0,-2.0437956E-1,6.250962E-1,-5.176471E-1,1.7217581E-1,6.8750842E-3,2.2702704E-1,-5.2525252E-2,3.5870966E-1,-3.4567904E-2,1.7910449E-2,-3.9215688E-2,-9.072165E-3,2.493075E-1,-5.5919733E-2,6.5671645E-2],"categories":[],"categories_nodes":[],"categories_segments":[],"categories_sizes":[],"default_left":[0,0,0,0,0,0,0,0,0,0,0,0,0,0,0,0,0,0,0,0,0,0,0,0,0,0,0,0,0,0,0,0,0,0,0,0,0,0,0,0,0],"id":3,"left_children":[1,3,5,7,9,-1,-1,11,13,-1,15,17,19,21,23,25,27,-1,29,-1,-1,-1,31,-1,-1,33,35,37,39,-1,-1,-1,-1,-1,-1,-1,-1,-1,-1,-1,-1],"loss_changes":[1.1345658E3,7.286795E2,9.223633E-1,3.209019E2,4.6570453E2,0E0,0E0,6.166968E2,1.7704132E1,0E0,1.4750139E2,3.8578796E2,2.3668555E2,2.7956543E0,2.0816181E1,3.5671143E1,2.8669111E1,0E0,4.300446E2,0E0,0E0,0E0,1.5218905E1,0E0,0E0,2.4343369E1,3.7852818E-1,5.4505394E1,2.7002497E0,0E0,0E0,0E0,0E0,0E0,0E0,0E0,0E0,0E0,0E0,0E0,0E0],"parents":[2147483647,0,0,1,1,2,2,3,3,4,4,7,7,8,8,10,10,11,11,12,12,13,13,14,14,15,15,16,16,18,18,22,22,25,25,26,26,27,27,28,28],"right_children":[2,4,6,8,10,-1,-1,12,14,-1,16,18,20,22,24,26,28,-1,30,-1,-1,-1,32,-1,-1,34,36,38,40,-1,-1,-1,-1,-1,-1,-1,-1,-1,-1,-1,-1],"split_conditions":[3.3007908E0,2.4634361E0,8.796696E-1,-2.229836E-1,2.223772E-1,3.944178E-1,1.1343284E-1,-2.739328E-1,2.9640603E0,3.9284757E-1,-3.8275367E-1,-5.753734E-1,-7.098515E-1,1.9756027E0,-1.3507244E-1,7.378841E-1,2.4270616E0,-5.7080936E-2,-5.348832E-1,-5.3543307E-2,3.927314E-1,-5.7098668E-2,-2.1888022E-1,2.825688E-1,-4.556962E-2,3.104757E0,-7.844609E-1,3.5234625E0,3.214183E-1,1.7217581E-1,6.8750842E-3,2.2702704E-1,-5.2525252E-2,3.5870966E-1,-3.4567904E-2,1.7910449E-2,-3.9215688E-2,-9.072165E-3,2.493075E-1,-5.5919733E-2,6.5671645E-2],"split_indices":[34,33,18,34,0,0,0,34,7,0,17,34,31,28,34,6,8,0,21,0,0,0,34,0,0,9,2,25,10,0,0,0,0,0,0,0,0,0,0,0,0],"split_type":[0,0,0,0,0,0,0,0,0,0,0,0,0,0,0,0,0,0,0,0,0,0,0,0,0,0,0,0,0,0,0,0,0,0,0,0,0,0,0,0,0],"sum_hessian":[4.5694688E3,4.4977188E3,7.175E1,4.3192188E3,1.785E2,7.065625E1,1.09375E0,3.0080312E3,1.3111875E3,6.890625E1,1.0959375E2,2.939125E3,6.890625E1,1.3048438E3,6.34375E0,2.31875E1,8.640625E1,9.218125E2,2.0173125E3,1.4875E1,5.403125E1,1.2921562E3,1.26875E1,2.40625E0,3.9375E0,1.990625E1,3.28125E0,3.959375E1,4.68125E1,1.710625E2,1.84625E3,1.3125E0,1.1375E1,1.8375E1,1.53125E0,1.09375E0,2.1875E0,2.93125E1,1.028125E1,4.571875E1,1.09375E0],"tree_param":{"num_deleted":"0","num_feature":"42","num_nodes":"41","size_leaf_vector":"1"}},{"base_weights":[-2.7349492E-5,-5.7063527E-2,4.362952E-1,2.1134446E0,8.565972E-2,-1.9288845E-1,3.0299249E0,5.5844784E-1,-4.1531628E-1,-4.599612E-1,1.6408317E0,-4.3243244E-1,3.231261E0,2.2156404E-1,1.1563385E0,-5.521015E-1,-5.6338027E-2,1.1343284E-1,-4.8573026E-1,-5.0541516E-2,3.5492957E-1,2.9473683E-2,-5.36862E-2,2.3227222E0,3.7581732E0,8.096081E-1,-5.6953646E-2,3.803681E0,4.7179487E-1,2.6993865E-1,-5.626049E-1,-2.946294E-1,3.151326E0,-5.451056E-2,-6.6666673E-3,3.2086024E-1,-5.507901E-2,3.9182284E-1,-4.97992E-2,2.2903005E-2,2.9158345E-1,3.859369E-1,1.8978103E-1,3.8908783E-1,2.4447162E-3,1.5384616E-1,-4.9122807E-2,-5.66609E-2,1.8543048E-2,3.1829786E-1,-3.905916E-2,3.3663365E-1,-2.9850746E-2],"categories":[],"categories_nodes":[],"categories_segments":[],"categories_sizes":[],"default_left":[0,0,0,0,0,0,0,0,0,0,0,0,0,0,0,0,0,0,0,0,0,0,0,0,0,0,0,0,0,0,0,0,0,0,0,0,0,0,0,0,0,0,0,0,0,0,0,0,0,0,0,0,0],"id":4,"left_children":[1,-1,3,5,7,9,11,13,15,17,19,21,23,25,27,29,31,-1,33,-1,-1,-1,-1,35,37,39,-1,41,43,45,47,49,51,-1,-1,-1,-1,-1,-1,-1,-1,-1,-1,-1,-1,-1,-1,-1,-1,-1,-1,-1,-1],"loss_changes":[1.1381545E3,0E0,1.5232461E3,9.473279E2,5.0796866E2,6.359406E1,2.2488232E2,2.2196634E2,5.110344E1,5.184412E0,6.950645E1,1.5630853E0,1.3636792E2,3.2931528E2,7.183369E2,6.661545E0,2.2139816E2,0E0,2.74267E0,0E0,0E0,0E0,0E0,2.9164594E2,1.3153223E2,4.9568607E2,0E0,1.3255615E0,4.8457123E2,1.0592352E1,2.3357544E0,9.114921E1,1.5863068E1,0E0,0E0,0E0,0E0,0E0,0E0,0E0,0E0,0E0,0E0,0E0,0E0,0E0,0E0,0E0,0E0,0E0,0E0,0E0,0E0],"parents":[2147483647,0,0,2,2,3,3,4,4,5,5,6,6,7,7,8,8,9,9,10,10,11,11,12,12,13,13,14,14,15,15,16,16,18,18,23,23,24,24,25,25,27,27,28,28,29,29,30,30,31,31,32,32],"right_children":[2,-1,4,6,8,10,12,14,16,18,20,22,24,26,28,30,32,-1,34,-1,-1,-1,-1,36,38,40,-1,42,44,46,48,50,52,-1,-1,-1,-1,-1,-1,-1,-1,-1,-1,-1,-1,-1,-1,-1,-1,-1,-1,-1,-1],"split_conditions":[-4.479325E-1,-5.7063527E-2,-9.0793675E-1,-5.496521E-1,2.2708328E-1,8.216087E-1,-5.171323E-1,3.6267016E-2,1.0002394E0,-3.5834863E0,-3.192077E-1,-9.2436016E-1,-1.3507244E-1,-3.2882813E-1,4.29382E-1,1.2023319E-1,3.6267016E-2,1.1343284E-1,-6.710767E-1,-5.0541516E-2,3.5492957E-1,2.9473683E-2,-5.36862E-2,-3.3855867E-1,9.687462E-1,8.531396E-1,-5.6953646E-2,1.7821597E-1,-1.0834429E0,-7.090871E-1,1.9911312E0,-9.2773247E-1,-6.767459E-1,-5.451056E-2,-6.6666673E-3,3.2086024E-1,-5.507901E-2,3.9182284E-1,-4.97992E-2,2.2903005E-2,2.9158345E-1,3.859369E-1,1.8978103E-1,3.8908783E-1,2.4447162E-3,1.5384616E-1,-4.9122807E-2,-5.66609E-2,1.8543048E-2,3.1829786E-1,-3.905916E-2,3.3663365E-1,-2.9850746E-2],"split_indices":[34,0,39,5,39,7,4,34,1,10,34,23,34,34,34,35,34,0,5,0,0,0,0,34,34,9,0,39,0,4,31,7,23,0,0,0,0,0,0,0,0,0,0,0,0,0,0,0,0,0,0,0,0],"split_type":[0,0,0,0,0,0,0,0,0,0,0,0,0,0,0,0,0,0,0,0,0,0,0,0,0,0,0,0,0,0,0,0,0,0,0,0,0,0,0,0,0,0,0,0,0,0,0,0,0,0,0,0,0],"sum_hessian":[4.5694688E3,1.9799062E3,2.5895625E3,4.4690625E2,2.1426562E3,1.273125E2,3.1959375E2,1.1022812E3,1.040375E3,1.1178125E2,1.553125E1,1.75E1,3.0209375E2,7.0590625E2,3.96375E2,7.529375E2,2.874375E2,1.09375E0,1.106875E2,7.65625E0,7.875E0,1.96875E0,1.553125E1,1.12875E2,1.8921875E2,4.0490625E2,3.01E2,8.05E1,3.15875E2,9.1875E0,7.4375E2,2.6840625E2,1.903125E1,9.66875E1,1.4E1,8.61875E1,2.66875E1,1.824375E2,6.78125E0,3.1828125E2,8.6625E1,7.721875E1,3.28125E0,3.565625E1,2.8021875E2,3.0625E0,6.125E0,7.4003125E2,3.71875E0,6.34375E0,2.620625E2,1.79375E1,1.09375E0],"tree_param":{"num_deleted":"0","num_feature":"42","num_nodes":"53","size_leaf_vector":"1"}},{"base_weights":[-2.7349492E-5,4.4862846E-1,-3.3831322E-1,-5.7027962E-2,7.933279E-1,-3.892909E-1,1.0980119E0,1.4109589E0,-1.19145356E-1,-4.3505173E-2,-4.455477E-1,-5.6057006E-2,3.3679013E0,9.6682465E-1,2.8651788E0,-5.702218E-2,1.6424524E0,5.933286E-1,-2.539012E-1,-2.2733928E-1,-5.0567263E-1,-4.6060607E-2,3.8521257E-1,4.6292508E-1,3.584895E0,3.7582192E0,2.02743E-1,3.932914E-1,-5.623131E-2,-5.3218883E-1,3.7025232E0,-4.5224908E-1,1.0277778E0,7.9569894E-1,-3.3898306E-1,-3.9128006E-1,-5.461815E-1,1.6852851E-1,-2.8277088E-2,-2.7906979E-2,3.750075E-1,8.2119204E-2,3.8258687E-1,3.4385964E-1,-2.9979745E-2,-5.6256063E-2,6.5671645E-2,3.821727E-1,6.5671645E-2,-5.686154E-2,3.7219252E-2,3.7030163E-1,-5.471448E-2,-5.4668467E-2,2.0332907E-1,6.617492E-2,-4.1318264E-2,-5.381729E-2,1.11128405E-1,8.695653E-3,-5.5161294E-2],"categories":[],"categories_nodes":[],"categories_segments":[],"categories_sizes":[],"default_left":[0,0,0,0,0,0,0,0,0,0,0,0,0,0,0,0,0,0,0,0,0,0,0,0,0,0,0,0,0,0,0,0,0,0,0,0,0,0,0,0,0,0,0,0,0,0,0,0,0,0,0,0,0,0,0,0,0,0,0,0,0],"id":5,"left_children":[1,3,5,-1,7,9,11,13,15,17,19,-1,21,23,25,-1,27,29,31,33,35,-1,-1,37,39,41,43,-1,-1,45,47,49,51,53,55,57,59,-1,-1,-1,-1,-1,-1,-1,-1,-1,-1,-1,-1,-1,-1,-1,-1,-1,-1,-1,-1,-1,-1,-1,-1],"loss_changes":[6.938297E2,6.9064886E2,1.9126297E2,0E0,8.279494E2,4.8957275E1,3.3919028E2,5.630111E2,4.7278897E2,4.7502594E1,2.8293427E1,0E0,7.216293E1,8.8561475E2,4.853213E2,0E0,6.148313E2,3.10141E2,6.817428E1,5.3901207E1,7.6488953E0,0E0,0E0,5.1562146E2,7.023694E1,2.7263672E1,8.625116E1,0E0,0E0,2.7357216E0,6.0337524E0,2.2406109E1,1.5370465E2,7.836308E1,3.1761726E1,9.931327E1,4.348175E0,0E0,0E0,0E0,0E0,0E0,0E0,0E0,0E0,0E0,0E0,0E0,0E0,0E0,0E0,0E0,0E0,0E0,0E0,0E0,0E0,0E0,0E0,0E0,0E0],"parents":[2147483647,0,0,1,1,2,2,4,4,5,5,6,6,7,7,8,8,9,9,10,10,12,12,13,13,14,14,16,16,17,17,18,18,19,19,20,20,23,23,24,24,25,25,26,26,29,29,30,30,31,31,32,32,33,33,34,34,35,35,36,36],"right_children":[2,4,6,-1,8,10,12,14,16,18,20,-1,22,24,26,-1,28,30,32,34,36,-1,-1,38,40,42,44,-1,-1,46,48,50,52,54,56,58,60,-1,-1,-1,-1,-1,-1,-1,-1,-1,-1,-1,-1,-1,-1,-1,-1,-1,-1,-1,-1,-1,-1,-1,-1],"split_conditions":[-2.686664E-1,-5.6909347E-1,1.8880291E0,-5.7027962E-2,-3.192077E-1,-9.725248E-1,1.0002394E0,9.039304E-1,1.1864263E0,-5.1115453E-1,-1.6520772E-2,-5.6057006E-2,-4.6697268E-1,-3.8149384E-1,5.457469E-1,-5.702218E-2,2.374501E0,-5.222417E-1,1.6030054E0,-9.5615524E-1,-5.080893E-1,-4.6060607E-2,3.8521257E-1,1.0002394E0,-6.953539E-1,-4.53408E-1,-1.7329035E0,3.932914E-1,-5.623131E-2,1.308435E0,-1.6256744E-1,1.5281973E0,1.5445197E0,-9.591489E-1,-1.0060351E0,-5.200357E-1,-2.3163667E0,1.6852851E-1,-2.8277088E-2,-2.7906979E-2,3.750075E-1,8.2119204E-2,3.8258687E-1,3.4385964E-1,-2.9979745E-2,-5.6256063E-2,6.5671645E-2,3.821727E-1,6.5671645E-2,-5.686154E-2,3.7219252E-2,3.7030163E-1,-5.471448E-2,-5.4668467E-2,2.0332907E-1,6.617492E-2,-4.1318264E-2,-5.381729E-2,1.11128405E-1,8.695653E-3,-5.5161294E-2],"split_indices":[39,34,6,0,34,18,1,6,34,34,39,0,27,34,5,0,34,34,34,7,34,0,0,1,17,27,30,0,0,37,4,0,2,9,22,34,2,0,0,0,0,0,0,0,0,0,0,0,0,0,0,0,0,0,0,0,0,0,0,0,0],"split_type":[0,0,0,0,0,0,0,0,0,0,0,0,0,0,0,0,0,0,0,0,0,0,0,0,0,0,0,0,0,0,0,0,0,0,0,0,0,0,0,0,0,0,0,0,0,0,0,0,0,0,0,0,0,0,0,0,0,0,0,0,0],"sum_hessian":[4.5694688E3,1.9641562E3,2.6053125E3,4.9634375E2,1.4678125E3,2.5167188E3,8.859375E1,8.75E2,5.928125E2,3.5240625E2,2.1643125E3,5.1625E1,3.696875E1,6.715625E2,2.034375E2,4.725E2,1.203125E2,8.70625E1,2.6534375E2,4.685625E2,1.69575E3,4.15625E0,3.28125E1,5.6415625E2,1.0740625E2,1.5203125E2,5.140625E1,5.8625E1,6.16875E1,6.453125E1,2.253125E1,2.3034375E2,3.5E1,4.55E1,4.230625E2,4.4625E2,1.2495E3,2.1328125E2,3.50875E2,4.375E0,1.0303125E2,3.71875E0,1.483125E2,6.125E0,4.528125E1,6.34375E1,1.09375E0,2.14375E1,1.09375E0,2.02125E2,2.821875E1,1.246875E1,2.253125E1,2.209375E1,2.340625E1,2.865625E1,3.9440625E2,4.0709375E2,3.915625E1,1.05E1,1.239E3],"tree_param":{"num_deleted":"0","num_feature":"42","num_nodes":"61","size_leaf_vector":"1"}},{"base_weights":[-2.7349492E-5,-2.2202773E-1,2.9242394E0,3.0083566E0,-3.6442924E-1,3.9162722E0,-5.3608245E-1,3.9538774E-1,1.5448635E0,-4.0322E-1,1.766167E0,-4.5033112E-2,3.983812E-1,-5.63454E-2,6.5671645E-2,3.8832116E-1,-5.5671763E-2,2.284467E-1,-4.7910923E-1,3.8952538E-1,-5.5545848E-2,2.0998003E0,-5.400758E-1,-5.7120103E-2,-2.6037458E-1,3.6647865E-1,-4.3645702E-2,2.0895521E-1,-5.5640023E-2,2.4563837E-1,-5.6872845E-2],"categories":[],"categories_nodes":[],"categories_segments":[],"categories_sizes":[],"default_left":[0,0,0,0,0,0,0,0,0,0,0,0,0,0,0,0,0,0,0,0,0,0,0,0,0,0,0,0,0,0,0],"id":6,"left_children":[1,3,5,7,9,11,13,-1,15,17,19,-1,-1,-1,-1,-1,-1,21,23,-1,-1,25,27,-1,29,-1,-1,-1,-1,-1,-1],"loss_changes":[2.9677441E3,1.9556422E3,1.1093767E3,2.4227722E2,3.3712097E2,7.576343E1,2.745222E0,0E0,3.56447E2,1.9178137E2,3.6284396E2,0E0,0E0,0E0,0E0,0E0,0E0,6.1887616E2,7.176221E1,0E0,0E0,4.9874274E2,1.426754E1,0E0,8.8899066E2,0E0,0E0,0E0,0E0,0E0,0E0],"parents":[2147483647,0,0,1,1,2,2,3,3,4,4,5,5,6,6,8,8,9,9,10,10,17,17,18,18,21,21,22,22,24,24],"right_children":[2,4,6,8,10,12,14,-1,16,18,20,-1,-1,-1,-1,-1,-1,22,24,-1,-1,26,28,-1,30,-1,-1,-1,-1,-1,-1],"split_conditions":[1.6979613E0,-6.932515E-1,3.3007908E0,-6.99694E-1,2.849005E0,-1.3396529E0,8.796696E-1,3.9538774E-1,1.0929239E0,-6.3747865E-1,-1.1784451E0,-4.5033112E-2,3.983812E-1,-5.63454E-2,6.5671645E-2,3.8832116E-1,-5.5671763E-2,-6.48745E-1,-2.4102119E-1,3.8952538E-1,-5.5545848E-2,-1.5666938E-1,-1.0834429E0,-5.7120103E-2,-1.3507244E-1,3.6647865E-1,-4.3645702E-2,2.0895521E-1,-5.5640023E-2,2.4563837E-1,-5.6872845E-2],"split_indices":[34,36,34,34,39,35,18,0,0,34,19,0,0,0,0,0,0,13,34,0,0,39,0,0,34,0,0,0,0,0,0],"split_type":[0,0,0,0,0,0,0,0,0,0,0,0,0,0,0,0,0,0,0,0,0,0,0,0,0,0,0,0,0,0,0],"sum_hessian":[4.5694688E3,4.2479062E3,3.215625E2,1.785E2,4.0694062E3,2.498125E2,7.175E1,1.0740625E2,7.109375E1,3.9974375E3,7.196875E1,3.71875E0,2.4609375E2,7.065625E1,1.09375E0,3.325E1,3.784375E1,4.2853125E2,3.5689062E3,3.71875E1,3.478125E1,1.2425E2,3.0428125E2,2.510375E3,1.0585312E3,7.65625E1,4.76875E1,1.09375E0,3.031875E2,1.071875E2,9.5134375E2],"tree_param":{"num_deleted":"0","num_feature":"42","num_nodes":"31","size_leaf_vector":"1"}},{"base_weights":[-2.7349492E-5,3.8967004E-1,-3.7161973E-1,-5.04176E-1,8.300278E-1,2.0049312E0,-4.6506464E-1,1.754386E0,-5.2550125E-1,5.6939363E-1,2.2420416E0,-4.7571188E-1,3.7328563E0,-5.7101306E-2,-2.9862642E-1,4.4444445E-1,2.8965518E-1,-5.4541475E-1,2.9065743E-1,3.4440584E0,4.629378E-1,-4.7493404E-1,2.9209864E0,1.1343284E-1,-5.5565145E-2,-3.9215688E-2,3.9203486E-1,1.7757009E0,-4.3266976E-1,1.4054054E-1,-3.9215688E-2,5.4901963E-1,-5.4954994E-1,-5.2968036E-2,2.3255813E0,3.8998434E-1,-1.4507772E-1,3.1671233E0,3.5754368E-1,-5.590231E-2,1.4054054E-1,3.782532E0,1.1801981E0,-5.4958183E-2,3.8588756E-1,-4.691849E-1,2.8187919E0,-2.9850746E-2,1.1343284E-1,5.405405E-2,-5.5232484E-2,3.0656934E-1,-2.9850746E-2,-4.556962E-2,6.5671645E-2,-5.0370373E-2,3.8952538E-1,1.9487089E-2,1.7919499E-1,-2.9850746E-2,3.821229E-1,3.4437086E-2,2.3317535E-1,-4.941948E-2,2.053232E-1,3.375E-1,-3.2432433E-2],"categories":[],"categories_nodes":[],"categories_segments":[],"categories_sizes":[],"default_left":[0,0,0,0,0,0,0,0,0,0,0,0,0,0,0,0,0,0,0,0,0,0,0,0,0,0,0,0,0,0,0,0,0,0,0,0,0,0,0,0,0,0,0,0,0,0,0,0,0,0,0,0,0,0,0,0,0,0,0,0,0,0,0,0,0,0,0],"id":7,"left_children":[1,3,5,7,9,11,13,15,17,19,21,23,25,-1,27,29,-1,31,33,35,37,39,41,-1,-1,-1,-1,43,45,-1,-1,47,49,-1,51,-1,53,55,57,-1,-1,59,61,-1,-1,63,65,-1,-1,-1,-1,-1,-1,-1,-1,-1,-1,-1,-1,-1,-1,-1,-1,-1,-1,-1,-1],"loss_changes":[6.619879E2,8.787145E2,5.2061255E2,3.6423584E1,5.490154E2,3.8205673E2,3.9547546E1,9.372858E0,1.20386505E1,3.8510608E2,4.3056274E2,5.4326286E0,4.2068787E1,0E0,2.4494809E2,4.1688747E0,0E0,3.5326385E0,3.1383999E1,7.412903E1,3.464761E2,8.276396E0,2.749148E2,0E0,0E0,0E0,0E0,2.6127313E2,9.9354416E1,0E0,0E0,1.9198126E0,2.4514008E0,0E0,1.1354023E1,0E0,1.8013586E0,1.2391043E2,2.7383127E2,0E0,0E0,2.0747925E1,5.9954918E1,0E0,0E0,5.2579117E1,1.7374954E1,0E0,0E0,0E0,0E0,0E0,0E0,0E0,0E0,0E0,0E0,0E0,0E0,0E0,0E0,0E0,0E0,0E0,0E0,0E0,0E0],"parents":[2147483647,0,0,1,1,2,2,3,3,4,4,5,5,6,6,7,7,8,8,9,9,10,10,11,11,12,12,14,14,15,15,17,17,18,18,19,19,20,20,21,21,22,22,27,27,28,28,31,31,32,32,34,34,36,36,37,37,38,38,41,41,42,42,45,45,46,46],"right_children":[2,4,6,8,10,12,14,16,18,20,22,24,26,-1,28,30,-1,32,34,36,38,40,42,-1,-1,-1,-1,44,46,-1,-1,48,50,-1,52,-1,54,56,58,-1,-1,60,62,-1,-1,64,66,-1,-1,-1,-1,-1,-1,-1,-1,-1,-1,-1,-1,-1,-1,-1,-1,-1,-1,-1,-1],"split_conditions":[-4.342598E-1,-6.429363E-1,-1.4308921E0,-1.4810233E0,9.422801E-1,-2.4894746E-1,3.9699337E-1,3.6993998E-1,2.0235486E0,-2.6633658E0,1.0002394E0,-2.3296152E-1,1.0635061E0,-5.7101306E-2,4.6649534E-1,2.3177838E-1,2.8965518E-1,-7.4361974E-1,-6.992835E-1,-5.43494E-1,-8.202568E-1,4.602754E-1,-5.676166E-1,1.1343284E-1,-5.5565145E-2,-3.9215688E-2,3.9203486E-1,1.5281973E0,1.659995E0,1.4054054E-1,-3.9215688E-2,-1.0522362E-1,-1.9256625E0,-5.2968036E-2,-1.0834429E0,3.8998434E-1,4.138957E-1,3.4683105E-1,1.3231497E0,-5.590231E-2,1.4054054E-1,-6.715414E-1,7.0914567E-1,-5.4958183E-2,3.8588756E-1,2.8551252E0,1.0929239E0,-2.9850746E-2,1.1343284E-1,5.405405E-2,-5.5232484E-2,3.0656934E-1,-2.9850746E-2,-4.556962E-2,6.5671645E-2,-5.0370373E-2,3.8952538E-1,1.9487089E-2,1.7919499E-1,-2.9850746E-2,3.821229E-1,3.4437086E-2,2.3317535E-1,-4.941948E-2,2.053232E-1,3.375E-1,-3.2432433E-2],"split_indices":[34,17,5,18,22,21,34,5,37,30,1,12,3,0,34,13,0,21,11,34,12,39,6,0,0,0,0,0,10,0,0,7,22,0,0,0,2,6,25,0,0,11,12,0,0,23,0,0,0,0,0,0,0,0,0,0,0,0,0,0,0,0,0,0,0,0,0],"split_type":[0,0,0,0,0,0,0,0,0,0,0,0,0,0,0,0,0,0,0,0,0,0,0,0,0,0,0,0,0,0,0,0,0,0,0,0,0,0,0,0,0,0,0,0,0,0,0,0,0,0,0,0,0,0,0,0,0,0,0,0,0,0,0,0,0,0,0],"sum_hessian":[4.5694688E3,2.230375E3,2.3390938E3,7.3609375E2,1.4942812E3,8.771875E1,2.251375E3,6.125E0,7.2996875E2,1.262625E3,2.3165625E2,3.63125E1,5.140625E1,1.3741875E3,8.771875E2,3.5E0,2.625E0,7.1290625E2,1.70625E1,4.396875E1,1.2186562E3,4.6375E1,1.8528125E2,1.09375E0,3.521875E1,2.1875E0,4.921875E1,5.25E1,8.246875E2,1.3125E0,2.1875E0,2.1875E0,7.1071875E2,1.26875E1,4.375E0,3.89375E1,5.03125E0,4.4625E1,1.1740312E3,4.50625E1,1.3125E0,1.2315625E2,6.2125E1,2.515625E1,2.734375E1,8.16375E2,8.3125E0,1.09375E0,1.09375E0,1.3125E0,7.0940625E2,3.28125E0,1.09375E0,3.9375E0,1.09375E0,7.4375E0,3.71875E1,1.0554688E3,1.185625E2,1.09375E0,1.220625E2,3.675E1,2.5375E1,8.0915625E2,7.21875E0,7E0,1.3125E0],"tree_param":{"num_deleted":"0","num_feature":"42","num_nodes":"67","size_leaf_vector":"1"}},{"base_weights":[-2.4339317E-4,-4.442203E-1,3.8338062E-1,-4.86649E-1,9.0781486E-1,-1.1385451E-1,9.0170836E-1,-5.4596156E-1,-3.3943725E-1,2.2058606E0,-1.0124113E-1,1.022214E0,-4.0983623E-1,2.9947624E-1,1.2645514E0,-4.4084722E-1,-5.572423E-1,6.996606E-1,-4.1633573E-1,2.57219E0,-4.3469872E-2,1.6514795E0,-5.1579237E-1,-5.602339E-2,1.7625978E0,-5.6584425E-2,-2.098517E-1,1.8843949E0,-1.15144715E-1,3.9711007E-1,1.7947681E0,-4.664285E-1,8.011607E-1,-4.730982E-1,-5.6307864E-1,-4.897785E-1,1.7509826E0,-2.5562155E-1,-5.57509E-1,6.972624E-2,2.621991E-1,-3.5333123E-2,2.2942154E-1,-5.469614E-2,1.6429372E-2,2.3117917E0,-9.7648546E-2,-5.517784E-1,4.0405083E-1,-5.5179156E-2,2.3464987E0,-3.8894626E-1,6.7260104E-1,1.5505332E0,-4.8454934E-1,2.0101748E0,-5.5467702E-2,3.186482E-2,-5.1193513E-2,1.6779314E-1,-3.218222E-2,-5.365875E-2,5.526587E-2,-2.8770415E-2,-5.646943E-2,-5.3813722E-2,2.0279935E-2,-3.405449E-2,2.5342008E-1,-4.005682E-2,1.5478288E-1,-3.813728E-2,-5.641969E-2,-2.1073803E-2,2.741867E-1,1.6488717E-1,-4.419149E-2,1.9735966E-2,-5.658829E-2,2.0093778E-1,-5.618409E-2,-4.769271E-2,2.509868E-1,1.3128017E-2,-5.6654282E-2,2.8439653E-1,-5.611759E-2,-2.596504E-2,2.5097457E-1,1.0675589E-1,-5.2030005E-2,2.3485577E-1,6.640991E-2],"categories":[],"categories_nodes":[],"categories_segments":[],"categories_sizes":[],"default_left":[0,0,0,0,0,0,0,0,0,0,0,0,0,0,0,0,0,0,0,0,0,0,0,0,0,0,0,0,0,0,0,0,0,0,0,0,0,0,0,0,0,0,0,0,0,0,0,0,0,0,0,0,0,0,0,0,0,0,0,0,0,0,0,0,0,0,0,0,0,0,0,0,0,0,0,0,0,0,0,0,0,0,0,0,0,0,0,0,0,0,0,0,0],"id":8,"left_children":[1,3,5,7,9,11,13,15,17,19,21,23,25,27,29,31,33,35,37,39,-1,41,43,-1,45,-1,47,49,51,53,55,57,59,61,63,65,67,69,71,-1,-1,-1,-1,-1,-1,73,75,77,79,-1,81,83,85,87,89,91,-1,-1,-1,-1,-1,-1,-1,-1,-1,-1,-1,-1,-1,-1,-1,-1,-1,-1,-1,-1,-1,-1,-1,-1,-1,-1,-1,-1,-1,-1,-1,-1,-1,-1,-1,-1,-1],"loss_changes":[7.763587E2,1.2164911E2,6.30337E2,1.7707886E1,8.4885605E1,4.203826E2,2.6126733E2,1.4844971E0,4.7529755E1,2.8507004E1,2.7970545E1,3.0375995E2,3.0815857E1,2.969115E2,3.4280347E2,5.018736E0,3.788452E-1,5.2263573E1,1.2360535E1,5.069885E-1,0E0,1.0316467E1,7.458439E-1,0E0,1.803335E2,0E0,9.176601E1,1.0675525E2,7.7652954E1,2.90192E2,2.355653E2,5.3034267E0,3.8072987E0,6.2541676E0,3.8180542E-1,7.8128624E-1,3.696717E1,6.846698E1,1.2942505E-1,0E0,0E0,0E0,0E0,0E0,0E0,1.4828467E2,2.5466509E1,3.075737E0,2.4392506E2,0E0,3.760559E1,2.4733421E1,2.5051167E2,2.1516977E2,9.548969E0,1.9182825E2,0E0,0E0,0E0,0E0,0E0,0E0,0E0,0E0,0E0,0E0,0E0,0E0,0E0,0E0,0E0,0E0,0E0,0E0,0E0,0E0,0E0,0E0,0E0,0E0,0E0,0E0,0E0,0E0,0E0,0E0,0E0,0E0,0E0,0E0,0E0,0E0,0E0],"parents":[2147483647,0,0,1,1,2,2,3,3,4,4,5,5,6,6,7,7,8,8,9,9,10,10,11,11,12,12,13,13,14,14,15,15,16,16,17,17,18,18,19,19,21,21,22,22,24,24,26,26,27,27,28,28,29,29,30,30,31,31,32,32,33,33,34,34,35,35,36,36,37,37,38,38,45,45,46,46,47,47,48,48,50,50,51,51,52,52,53,53,54,54,55,55],"right_children":[2,4,6,8,10,12,14,16,18,20,22,24,26,28,30,32,34,36,38,40,-1,42,44,-1,46,-1,48,50,52,54,56,58,60,62,64,66,68,70,72,-1,-1,-1,-1,-1,-1,74,76,78,80,-1,82,84,86,88,90,92,-1,-1,-1,-1,-1,-1,-1,-1,-1,-1,-1,-1,-1,-1,-1,-1,-1,-1,-1,-1,-1,-1,-1,-1,-1,-1,-1,-1,-1,-1,-1,-1,-1,-1,-1,-1,-1],"split_conditions":[-7.424392E-2,1.9890893E0,-3.0046698E-1,-3.8377762E-1,1.2187165E-1,-5.9792924E-1,-3.7016854E-1,-3.053959E-1,-6.604258E-1,-2.4202622E-1,-1.5179863E0,1.0002394E0,1.0002394E0,-6.604258E-1,-3.716748E-1,1.2824433E0,-4.46278E-1,-6.9784975E-1,1.7600878E-1,-5.6167305E-1,-4.3469872E-2,-1.347818E0,1.4774586E0,-5.602339E-2,2.9565412E-1,-5.6584425E-2,-3.2144833E-1,-7.232821E-1,7.9009265E-1,-6.201351E-1,1.6780716E0,-6.604258E-1,6.576506E-1,1.863012E-1,-2.1640255E0,-7.745938E-2,-5.09608E-1,4.353003E-1,-6.48745E-1,6.972624E-2,2.621991E-1,-3.5333123E-2,2.2942154E-1,-5.469614E-2,1.6429372E-2,-8.0830234E-1,-1.7239496E0,-1.0083907E0,-2.9808125E-1,-5.5179156E-2,-2.05323E0,-2.2676188E-2,1.6780716E0,-5.620693E-1,-1.0461195E0,1.0002394E0,-5.5467702E-2,3.186482E-2,-5.1193513E-2,1.6779314E-1,-3.218222E-2,-5.365875E-2,5.526587E-2,-2.8770415E-2,-5.646943E-2,-5.3813722E-2,2.0279935E-2,-3.405449E-2,2.5342008E-1,-4.005682E-2,1.5478288E-1,-3.813728E-2,-5.641969E-2,-2.1073803E-2,2.741867E-1,1.6488717E-1,-4.419149E-2,1.9735966E-2,-5.658829E-2,2.0093778E-1,-5.618409E-2,-4.769271E-2,2.509868E-1,1.3128017E-2,-5.6654282E-2,2.8439653E-1,-5.611759E-2,-2.596504E-2,2.5097457E-1,1.0675589E-1,-5.2030005E-2,2.3485577E-1,6.640991E-2],"split_indices":[6,39,40,6,18,34,37,22,34,3,2,1,1,34,34,35,30,34,7,37,0,11,5,0,12,0,36,34,34,34,34,34,0,32,2,29,11,20,13,0,0,0,0,0,0,12,2,4,34,0,22,7,34,23,8,1,0,0,0,0,0,0,0,0,0,0,0,0,0,0,0,0,0,0,0,0,0,0,0,0,0,0,0,0,0,0,0,0,0,0,0,0,0],"split_type":[0,0,0,0,0,0,0,0,0,0,0,0,0,0,0,0,0,0,0,0,0,0,0,0,0,0,0,0,0,0,0,0,0,0,0,0,0,0,0,0,0,0,0,0,0,0,0,0,0,0,0,0,0,0,0,0,0,0,0,0,0,0,0,0,0,0,0,0,0,0,0,0,0,0,0,0,0,0,0,0,0,0,0,0,0,0,0,0,0,0,0,0,0],"sum_hessian":[4.5562305E3,2.1119102E3,2.4443203E3,2.0482725E3,6.3637516E1,1.2479419E3,1.1963783E3,1.4580901E3,5.9018243E2,2.7314362E1,3.6323154E1,2.5742233E2,9.905196E2,4.5049332E2,7.45885E2,1.4519887E2,1.3128912E3,4.0108883E1,5.5007355E2,2.400939E1,3.3049722E0,6.3770866E0,2.9946068E1,8.212884E1,1.752935E2,5.554126E2,4.35107E2,9.267843E1,3.5781488E2,2.8362302E2,4.62262E2,1.4288046E2,2.318412E0,9.0480354E1,1.2224109E3,1.906892E1,2.1039963E1,2.5854828E2,2.915253E2,1.0093653E0,2.3000025E1,1.6574543E0,4.719632E0,2.8820925E1,1.1251423E0,1.3515071E2,4.0142788E1,2.7952213E2,1.5558487E2,1.474572E1,7.793271E1,2.659005E2,9.191439E1,1.2254541E2,1.610776E2,4.2357166E2,3.869035E1,7.499384E0,1.3538107E2,1.0244207E0,1.2939914E0,8.565558E1,4.8247695E0,8.174582E0,1.2142363E3,1.8032787E1,1.0361317E0,5.886279E0,1.5153684E1,2.4003418E2,1.8514101E1,1.27869215E1,2.7873837E2,1.9760284E1,1.15390434E2,5.985884E0,3.4156906E1,4.9253874E0,2.7459674E2,5.8040432E1,9.754443E1,4.157718E0,7.3774994E1,6.773827E1,1.9816223E2,3.283026E1,5.908413E1,4.2697624E1,7.9847786E1,2.976856E0,1.5810075E2,3.3788718E2,8.568446E1],"tree_param":{"num_deleted":"0","num_feature":"42","num_nodes":"93","size_leaf_vector":"1"}},{"base_weights":[-5.3631683E-4,-2.9902878E-1,7.4660885E-1,1.4507629E-2,-5.145516E-1,-5.121385E-2,1.8230712E0,-5.3340507E-1,1.20486E0,-5.4173315E-1,-9.285526E-2,2.3814995E0,-4.697636E-1,2.1793692E0,-5.590077E-2,-5.5569714E-1,-1.2497357E-1,1.8631108E0,-2.8763187E-1,8.435018E-1,-5.449779E-1,2.4099376E0,-5.604254E-2,2.7261832E0,-1.7940485E-1,4.678834E-1,-5.183869E-1,2.5621262E0,5.713215E-1,-5.6360748E-2,-4.1045707E-1,2.3174553E0,-5.5254735E-2,2.7488604E0,1.0561107E0,-5.6254145E-2,2.372577E0,1.9963787E-1,-3.8304057E-2,-5.6501585E-1,-4.1465604E-1,-3.173723E-2,2.6134923E0,2.7529178E0,4.9643684E-2,1.5067025E-1,-4.5202368E-1,-5.415274E-2,2.321389E0,7.466893E-1,-5.453602E-1,2.62488E0,-5.030163E-2,-2.5376034E-1,2.2621598E0,1.998541E-1,-5.5492368E-2,6.437078E-2,2.5052288E-1,7.002517E-2,2.7587852E-1,2.6511842E-2,2.2730525E-1,5.776264E-2,2.5182313E-1,-2.6547596E-2,-5.6627966E-2,2.0609167E-1,-5.6008615E-2,6.878346E-2,2.6911226E-1,6.6321306E-2,2.769341E-1,1.7465292E-2,-5.239715E-2,2.630653E-1,-3.1362277E-2,-5.1983923E-2,2.4781112E-1,-5.5677988E-2,2.7069325E-2,2.6501602E-1,-1.7763162E-3,-4.7964733E-2,2.3726983E-1,2.6020148E-1,-4.58501E-2],"categories":[],"categories_nodes":[],"categories_segments":[],"categories_sizes":[],"default_left":[0,0,0,0,0,0,0,0,0,0,0,0,0,0,0,0,0,0,0,0,0,0,0,0,0,0,0,0,0,0,0,0,0,0,0,0,0,0,0,0,0,0,0,0,0,0,0,0,0,0,0,0,0,0,0,0,0,0,0,0,0,0,0,0,0,0,0,0,0,0,0,0,0,0,0,0,0,0,0,0,0,0,0,0,0,0,0],"id":9,"left_children":[1,3,5,7,9,11,13,15,17,19,21,23,25,27,-1,29,31,33,35,37,39,41,-1,43,45,47,49,51,53,-1,55,57,-1,59,61,-1,63,-1,-1,65,67,-1,69,71,-1,-1,73,-1,75,77,79,81,-1,83,85,-1,-1,-1,-1,-1,-1,-1,-1,-1,-1,-1,-1,-1,-1,-1,-1,-1,-1,-1,-1,-1,-1,-1,-1,-1,-1,-1,-1,-1,-1,-1,-1],"loss_changes":[1.01685455E3,2.201608E2,1.117929E3,8.668822E2,2.2081055E1,7.632656E2,4.7147473E2,8.217834E0,4.1212903E2,8.611694E0,1.3958356E2,9.762396E1,2.9397064E1,2.9531543E2,0E0,7.599182E-1,5.1823456E1,2.0500543E2,9.574019E1,7.3130455E0,4.4924316E0,1.1256874E1,0E0,4.418701E0,7.112865E0,6.1224224E1,2.1168549E1,7.6180664E1,1.3170119E2,0E0,1.7899208E1,7.1398544E-1,0E0,8.748779E-1,1.4746414E2,0E0,1.7565613E0,0E0,0E0,4.4244385E-1,8.935053E1,0E0,7.7796173E-1,1.4470215E0,0E0,0E0,6.692765E-1,0E0,1.0188393E1,3.0067137E1,5.7076416E0,2.5536621E1,0E0,3.9148132E1,2.9787369E1,0E0,0E0,0E0,0E0,0E0,0E0,0E0,0E0,0E0,0E0,0E0,0E0,0E0,0E0,0E0,0E0,0E0,0E0,0E0,0E0,0E0,0E0,0E0,0E0,0E0,0E0,0E0,0E0,0E0,0E0,0E0,0E0],"parents":[2147483647,0,0,1,1,2,2,3,3,4,4,5,5,6,6,7,7,8,8,9,9,10,10,11,11,12,12,13,13,15,15,16,16,17,17,18,18,19,19,20,20,21,21,23,23,24,24,25,25,26,26,27,27,28,28,30,30,31,31,33,33,34,34,36,36,39,39,40,40,42,42,43,43,46,46,48,48,49,49,50,50,51,51,53,53,54,54],"right_children":[2,4,6,8,10,12,14,16,18,20,22,24,26,28,-1,30,32,34,36,38,40,42,-1,44,46,48,50,52,54,-1,56,58,-1,60,62,-1,64,-1,-1,66,68,-1,70,72,-1,-1,74,-1,76,78,80,82,-1,84,86,-1,-1,-1,-1,-1,-1,-1,-1,-1,-1,-1,-1,-1,-1,-1,-1,-1,-1,-1,-1,-1,-1,-1,-1,-1,-1,-1,-1,-1,-1,-1,-1],"split_conditions":[3.5641572E-1,-5.9664404E-1,7.408199E-2,-7.58679E-1,2.4603538E-1,-7.9209745E-2,6.063565E-1,-7.7830994E-1,1.1834849E-1,-2.1890657E-1,-3.281666E-1,9.4015196E-2,-7.0363146E-1,2.1752315E0,-5.590077E-2,-7.9305977E-1,-1.2350571E0,-6.481695E-1,-9.0160206E-2,-2.968139E-1,6.959881E-3,-5.7255E-1,-5.604254E-2,-5.9584286E-2,-6.481695E-1,-2.229836E-1,7.845942E-2,1.7834592E0,1.1776351E0,-5.6360748E-2,-1.2484891E0,-9.911537E-1,-5.5254735E-2,-8.401739E-1,-4.2322302E-1,-5.6254145E-2,-4.4158515E-1,1.9963787E-1,-3.8304057E-2,-7.238456E-1,-4.9603653E-1,-3.173723E-2,-5.1573694E-1,-5.706962E-1,4.9643684E-2,1.5067025E-1,4.5439875E-1,-5.415274E-2,6.891788E-1,7.808369E-1,4.7834054E-2,1.738386E0,-5.030163E-2,4.6649534E-1,3.2055598E-2,1.998541E-1,-5.5492368E-2,6.437078E-2,2.5052288E-1,7.002517E-2,2.7587852E-1,2.6511842E-2,2.2730525E-1,5.776264E-2,2.5182313E-1,-2.6547596E-2,-5.6627966E-2,2.0609167E-1,-5.6008615E-2,6.878346E-2,2.6911226E-1,6.6321306E-2,2.769341E-1,1.7465292E-2,-5.239715E-2,2.630653E-1,-3.1362277E-2,-5.1983923E-2,2.4781112E-1,-5.5677988E-2,2.7069325E-2,2.6501602E-1,-1.7763162E-3,-4.7964733E-2,2.3726983E-1,2.6020148E-1,-4.58501E-2],"split_indices":[7,28,39,7,7,27,34,7,34,29,31,5,21,41,0,7,23,0,7,6,7,34,0,21,0,34,23,5,39,0,23,8,0,11,7,0,22,0,0,31,23,0,11,17,0,0,5,0,15,7,29,6,0,34,21,0,0,0,0,0,0,0,0,0,0,0,0,0,0,0,0,0,0,0,0,0,0,0,0,0,0,0,0,0,0,0,0],"split_type":[0,0,0,0,0,0,0,0,0,0,0,0,0,0,0,0,0,0,0,0,0,0,0,0,0,0,0,0,0,0,0,0,0,0,0,0,0,0,0,0,0,0,0,0,0,0,0,0,0,0,0,0,0,0,0,0,0,0,0,0,0,0,0,0,0,0,0,0,0,0,0,0,0,0,0,0,0,0,0,0,0,0,0,0,0,0,0],"sum_hessian":[4.5575327E3,3.2569473E3,1.3005856E3,1.3271622E3,1.9297852E3,7.4751526E2,5.530703E2,9.0920984E2,4.1795242E2,1.8126606E3,1.1712449E2,1.0904268E2,6.3847253E2,4.8118274E2,7.1887535E1,8.6181177E2,4.7398033E1,2.8986264E2,1.2808975E2,3.6309116E0,1.8090298E3,1.7782858E1,9.934163E1,9.60503E1,1.2992376E1,3.1051723E1,6.0742084E2,3.881902E2,9.299256E1,8.145669E2,4.724489E1,6.4028764E0,4.0995155E1,1.370417E2,1.5282095E2,1.1680727E2,1.1282485E1,1.5481217E0,2.08279E0,1.5650557E3,2.4397406E2,1.1962214E0,1.6586637E1,9.468044E1,1.3698564E0,1.178257E0,1.1814119E1,2.0561733E1,1.0489991E1,1.2123708E1,5.952971E2,3.8054282E2,7.6473866E0,6.3067368E1,2.992519E1,1.9468577E0,4.529803E1,1.0925326E0,5.3103437E0,1.0057045E0,1.36036E2,9.335777E1,5.946318E1,1.2195274E0,1.0062958E1,7.462124E0,1.5575936E3,1.2806429E1,2.3116763E2,1.0248618E0,1.5561775E1,1.0609795E0,9.361947E1,1.069666E0,1.0744452E1,9.389612E0,1.1003785E0,7.406005E0,4.717703E0,5.8739496E2,7.9021506E0,3.7693414E2,3.6086674E0,5.8825497E1,4.241873E0,2.6640915E1,3.2842746E0],"tree_param":{"num_deleted":"0","num_feature":"42","num_nodes":"87","size_leaf_vector":"1"}},{"base_weights":[-1.768152E-3,2.7094078E0,-4.7802645E-1,2.7204964E0,-3.9542187E-2,2.908384E-1,-5.309404E-1,2.7270954E0,-3.4354907E-2,-5.1183605E-1,2.720796E0,-1.4808425E-1,-5.6396496E-1,2.731291E-1,1.5057891E-2,-5.6414254E-2,6.9322145E-1,2.777765E-1,9.197724E-3,2.6228395E0,-5.246492E-1,-4.4235498E-1,-5.6602027E-2,2.3134935E-1,-4.6863973E-2,2.686587E-1,5.4091938E-2,1.357859E0,-5.5939347E-1,-5.5765636E-2,2.0751289E-1,2.1719532E-1,-3.3727363E-2,1.7489254E-2,-5.6332108E-2],"categories":[],"categories_nodes":[],"categories_segments":[],"categories_sizes":[],"default_left":[0,0,0,0,0,0,0,0,0,0,0,0,0,0,0,0,0,0,0,0,0,0,0,0,0,0,0,0,0,0,0,0,0,0,0],"id":10,"left_children":[1,3,5,7,-1,9,11,13,-1,15,17,19,21,-1,-1,-1,23,-1,-1,25,27,29,-1,-1,-1,-1,-1,31,33,-1,-1,-1,-1,-1,-1],"loss_changes":[5.8930386E3,2.4553223E1,1.5808838E2,1.4679199E1,0E0,4.901909E2,4.584308E1,6.9208984E0,0E0,1.23181305E1,9.08728E0,3.0376218E2,5.8532715E-1,0E0,0E0,0E0,1.674742E1,0E0,0E0,3.170395E0,1.750106E1,1.861604E1,0E0,0E0,0E0,0E0,0E0,7.5363035E0,8.253708E-1,0E0,0E0,0E0,0E0,0E0,0E0],"parents":[2147483647,0,0,1,1,2,2,3,3,5,5,6,6,7,7,9,9,10,10,11,11,12,12,16,16,19,19,20,20,21,21,27,27,28,28],"right_children":[2,4,6,8,-1,10,12,14,-1,16,18,20,22,-1,-1,-1,24,-1,-1,26,28,30,-1,-1,-1,-1,-1,32,34,-1,-1,-1,-1,-1,-1],"split_conditions":[-9.2945445E-1,2.166623E0,-9.317336E-1,9.411178E-3,-3.9542187E-2,-8.80532E-1,-6.696294E-1,-5.9577E-1,-3.4354907E-2,-9.3773013E-1,3.2106414E-1,-6.0696507E-1,-9.1543204E-1,2.731291E-1,1.5057891E-2,-5.6414254E-2,-1.0842842E0,2.777765E-1,9.197724E-3,-8.7385684E-1,-6.3346714E-1,-8.783625E-1,-5.6602027E-2,2.3134935E-1,-4.6863973E-2,2.686587E-1,5.4091938E-2,-1.6320293E-1,-5.75606E-1,-5.5765636E-2,2.0751289E-1,2.1719532E-1,-3.3727363E-2,1.7489254E-2,-5.6332108E-2],"split_indices":[12,5,4,34,0,31,34,24,0,31,29,24,4,0,0,0,24,0,0,6,7,23,0,0,0,0,0,5,7,0,0,0,0,0,0],"split_type":[0,0,0,0,0,0,0,0,0,0,0,0,0,0,0,0,0,0,0,0,0,0,0,0,0,0,0,0,0,0,0,0,0,0,0],"sum_hessian":[4.5619272E3,6.809309E2,3.880996E3,6.7863104E2,2.2998953E0,2.4960603E2,3.6313901E3,6.7728235E2,1.3486454E0,1.882213E2,6.1384727E1,2.8879932E2,3.3425908E3,6.761212E2,1.1611425E0,1.80901E2,7.3202996E0,6.002723E1,1.3575015E0,3.3838223E1,2.549611E2,5.914698E1,3.2834438E3,2.6431298E0,4.67717E0,3.2551086E1,1.2871382E0,3.930272E0,2.5103082E2,5.7301064E1,1.845917E0,2.465107E0,1.4651651E0,1.1039897E0,2.4992683E2],"tree_param":{"num_deleted":"0","num_feature":"42","num_nodes":"35","size_leaf_vector":"1"}},{"base_weights":[1.996502E-3,-5.7868596E-2,2.714874E0,-1.3641126E-1,1.5311065E0,6.4970784E-2,2.731186E-1,3.535245E-2,-5.521972E-1,2.702934E-1,5.573277E-1,-5.6545574E-2,2.8021523E-1,-5.60966E-1,9.1885376E-1,2.110234E0,-6.881026E-3,6.030689E-1,-3.365978E-1,-5.657776E-2,-8.555057E-2,2.343695E-1,-4.490302E-2,2.4213743E0,-2.2261551E-1,5.417561E-1,-5.1036125E-1,-1.9597849E-2,9.238804E-2,-3.9165717E-2,2.6540694E-1,1.992294E-1,-5.2085858E-2,2.6212117E-1,-3.5934705E-2,-4.049812E-2,1.9766655E-2,-3.774274E-2,1.6638942E-1,-5.5388607E-2,6.165674E-2],"categories":[],"categories_nodes":[],"categories_segments":[],"categories_sizes":[],"default_left":[0,0,0,0,0,0,0,0,0,0,0,0,0,0,0,0,0,0,0,0,0,0,0,0,0,0,0,0,0,0,0,0,0,0,0,0,0,0,0,0,0],"id":11,"left_children":[1,3,5,7,9,-1,-1,11,13,-1,15,-1,17,19,21,23,25,27,29,-1,31,-1,-1,33,35,37,39,-1,-1,-1,-1,-1,-1,-1,-1,-1,-1,-1,-1,-1,-1],"loss_changes":[7.3878296E2,5.556775E2,1.5339966E0,3.029749E2,2.3780606E2,0E0,0E0,4.4192944E2,1.6512878E1,0E0,1.01473526E2,0E0,4.251829E2,2.7731323E0,1.6114084E1,2.2941177E1,2.4014303E1,3.593694E2,1.2188216E2,0E0,1.3281625E1,0E0,0E0,1.6121109E1,4.2861587E-1,4.3545326E1,2.564762E0,0E0,0E0,0E0,0E0,0E0,0E0,0E0,0E0,0E0,0E0,0E0,0E0,0E0,0E0],"parents":[2147483647,0,0,1,1,2,2,3,3,4,4,7,7,8,8,10,10,12,12,13,13,14,14,15,15,16,16,17,17,18,18,20,20,23,23,24,24,25,25,26,26],"right_children":[2,4,6,8,10,-1,-1,12,14,-1,16,-1,18,20,22,24,26,28,30,-1,32,-1,-1,34,36,38,40,-1,-1,-1,-1,-1,-1,-1,-1,-1,-1,-1,-1,-1,-1],"split_conditions":[3.3007908E0,2.4634361E0,-1.9089554E-1,-2.229836E-1,2.223772E-1,6.4970784E-2,2.731186E-1,-5.753734E-1,2.9640603E0,2.702934E-1,-3.7006494E-1,-5.6545574E-2,-4.038421E-2,1.9756027E0,-1.3507244E-1,7.378841E-1,2.4270616E0,-6.4771855E-1,-2.7988636E-1,-5.657776E-2,-2.1888022E-1,2.343695E-1,-4.490302E-2,3.104757E0,9.7061306E-1,2.9016895E0,3.214183E-1,-1.9597849E-2,9.238804E-2,-3.9165717E-2,2.6540694E-1,1.992294E-1,-5.2085858E-2,2.6212117E-1,-3.5934705E-2,-4.049812E-2,1.9766655E-2,-3.774274E-2,1.6638942E-1,-5.5388607E-2,6.165674E-2],"split_indices":[34,33,29,34,0,0,0,34,7,0,17,0,40,28,34,6,8,22,34,0,34,0,0,9,35,24,10,0,0,0,0,0,0,0,0,0,0,0,0,0,0],"split_type":[0,0,0,0,0,0,0,0,0,0,0,0,0,0,0,0,0,0,0,0,0,0,0,0,0,0,0,0,0,0,0,0,0,0,0,0,0,0,0,0,0],"sum_hessian":[4.5470015E3,4.4497866E3,9.721482E1,4.241066E3,2.0872075E2,1.0817966E0,9.6133026E1,3.0018843E3,1.2391816E3,9.392156E1,1.14799194E2,8.688121E2,2.1330723E3,1.2324539E3,6.7278404E0,2.9863604E1,8.493559E1,1.4001991E3,7.3287305E2,1.2199172E3,1.2536637E1,2.9459016E0,3.7819386E0,2.6315823E1,3.5477805E0,4.06087E1,4.4326893E1,4.0123343E2,9.989657E2,7.2047784E2,1.2395245E1,1.5519602E0,1.0984677E1,2.4604942E1,1.7108804E0,2.4995854E0,1.0481951E0,2.268789E1,1.7920809E1,4.3168133E1,1.1587626E0],"tree_param":{"num_deleted":"0","num_feature":"42","num_nodes":"41","size_leaf_vector":"1"}},{"base_weights":[1.5000634E-6,-5.655819E-2,3.948492E-1,1.5877917E0,5.85628E-2,-1.5916774E-1,2.1610377E0,4.786309E-1,-4.0472355E-1,-4.2986834E-1,1.4314055E0,-4.1390464E-1,2.2968905E0,6.310362E-1,-5.6598067E-2,-4.3467203E-1,1.3279489E0,-4.9300808E-1,1.4991568E-1,-4.0648788E-1,2.6944867E-1,1.3545346E-1,-5.371047E-2,2.3857703E0,-4.6870872E-1,1.8467078E-1,1.7356111E0,5.1333547E-1,-4.763107E-1,3.2960627E0,-4.1124898E-1,1.02931336E-1,-5.1863402E-2,-4.8552096E-2,6.545415E-2,-5.0056197E-2,1.9564426E-2,-4.227784E-2,1.053827E-1,2.8185794E-1,1.8686333E-1,1.6968306E-2,-5.3701162E-2,6.92034E-2,-5.6471474E-2,4.028825E-3,2.4483748E-1,1.6775464E-1,-3.455563E-2,-5.5253476E-2,-2.5556598E-2,3.5888073E-1,6.806511E-2,-5.031698E-2,1.7295403E-2],"categories":[],"categories_nodes":[],"categories_segments":[],"categories_sizes":[],"default_left":[0,0,0,0,0,0,0,0,0,0,0,0,0,0,0,0,0,0,0,0,0,0,0,0,0,0,0,0,0,0,0,0,0,0,0,0,0,0,0,0,0,0,0,0,0,0,0,0,0,0,0,0,0,0,0],"id":12,"left_children":[1,-1,3,5,7,9,11,13,15,17,19,21,23,25,-1,27,29,31,33,35,-1,37,-1,39,41,43,45,47,49,51,53,-1,-1,-1,-1,-1,-1,-1,-1,-1,-1,-1,-1,-1,-1,-1,-1,-1,-1,-1,-1,-1,-1,-1,-1],"loss_changes":[1.017621E3,0E0,1.0764194E3,5.9125574E2,4.0778207E2,6.378694E1,1.563894E2,1.7530284E2,5.2286026E1,4.691841E0,5.1166138E1,1.6372657E0,1.0490503E2,4.7272464E2,0E0,3.8941177E1,6.0154266E1,4.9807663E0,4.536176E0,6.448066E-1,0E0,3.0257893E0,0E0,8.633154E1,7.0082784E-1,2.6061746E2,3.3342212E2,4.230412E1,1.566832E1,3.8122406E0,6.244774E-1,0E0,0E0,0E0,0E0,0E0,0E0,0E0,0E0,0E0,0E0,0E0,0E0,0E0,0E0,0E0,0E0,0E0,0E0,0E0,0E0,0E0,0E0,0E0,0E0],"parents":[2147483647,0,0,2,2,3,3,4,4,5,5,6,6,7,7,8,8,9,9,10,10,11,11,12,12,13,13,15,15,16,16,17,17,18,18,19,19,21,21,23,23,24,24,25,25,26,26,27,27,28,28,29,29,30,30],"right_children":[2,-1,4,6,8,10,12,14,16,18,20,22,24,26,-1,28,30,32,34,36,-1,38,-1,40,42,44,46,48,50,52,54,-1,-1,-1,-1,-1,-1,-1,-1,-1,-1,-1,-1,-1,-1,-1,-1,-1,-1,-1,-1,-1,-1,-1,-1],"split_conditions":[-4.479325E-1,-5.655819E-2,-8.4396464E-1,-5.416532E-1,2.2708328E-1,8.216087E-1,-5.171323E-1,1.1864263E0,3.6158519E0,-6.232787E-1,5.877566E-1,-9.2436016E-1,9.7143716E-1,3.6267016E-2,-5.6598067E-2,-7.379392E-1,1.2562509E0,-3.5834863E0,-2.4838682E-1,-8.8672996E-1,2.6944867E-1,-1.0834429E0,-5.371047E-2,2.223772E-1,-3.386301E-1,-3.2882813E-1,-8.834577E-1,-8.972056E-1,1.0002394E0,-1.6320503E0,-5.020748E-1,1.02931336E-1,-5.1863402E-2,-4.8552096E-2,6.545415E-2,-5.0056197E-2,1.9564426E-2,-4.227784E-2,1.053827E-1,2.8185794E-1,1.8686333E-1,1.6968306E-2,-5.3701162E-2,6.92034E-2,-5.6471474E-2,4.028825E-3,2.4483748E-1,1.6775464E-1,-3.455563E-2,-5.5253476E-2,-2.5556598E-2,3.5888073E-1,6.806511E-2,-5.031698E-2,1.7295403E-2],"split_indices":[34,0,39,5,39,7,4,34,40,5,34,23,22,34,0,41,39,10,30,39,0,0,0,0,21,34,5,31,1,22,22,0,0,0,0,0,0,0,0,0,0,0,0,0,0,0,0,0,0,0,0,0,0,0,0],"split_type":[0,0,0,0,0,0,0,0,0,0,0,0,0,0,0,0,0,0,0,0,0,0,0,0,0,0,0,0,0,0,0,0,0,0,0,0,0,0,0,0,0,0,0,0,0,0,0,0,0,0,0,0,0,0,0],"sum_hessian":[4.554798E3,1.8723682E3,2.6824294E3,5.890636E2,2.093366E3,1.4571657E2,4.4334702E2,1.0978748E3,9.954912E2,1.2514741E2,2.0569172E1,2.2116001E1,4.2123102E2,9.5843774E2,1.3943697E2,9.7931335E2,1.617786E1,1.12992E2,1.2155406E1,8.654416E0,1.1914755E1,4.033018E0,1.8082983E1,4.0824823E2,1.29828E1,6.834277E2,2.750101E2,4.0727303E1,9.3858606E2,7.169517E0,9.008343E0,1.2221587E0,1.1176984E2,5.3971043E0,6.7583013E0,7.630889E0,1.0235271E0,2.8439639E0,1.1890541E0,2.198219E2,1.8842633E2,1.111347E0,1.1871452E1,4.0756607E2,2.758616E2,8.171228E1,1.9329784E2,1.6885792E1,2.384151E1,6.9655853E2,2.4202754E2,6.113098E0,1.056419E0,7.9034843E0,1.1048583E0],"tree_param":{"num_deleted":"0","num_feature":"42","num_nodes":"55","size_leaf_vector":"1"}},{"base_weights":[3.8460921E-4,4.0671644E-1,-3.279021E-1,-5.6504853E-2,6.9756836E-1,-3.8197592E-1,8.7888086E-1,1.1807027E0,-1.1396824E-1,-1.6618852E-1,-4.7026476E-1,-5.5734295E-2,2.4247818E0,-4.140116E-1,1.447264E0,-5.6521386E-2,1.347332E0,-5.6623556E-2,1.3794612E0,-2.829555E-1,-5.169647E-1,-4.6875823E-2,2.7252548E0,1.8052313E0,-5.313185E-1,2.2648065E0,1.053869E0,2.7150676E-1,-5.5585135E-2,-5.6036163E-2,2.7185748E0,-4.3336493E-1,5.939491E-1,-1.3804413E-1,-5.309607E-1,2.775835E-1,1.9955307E-2,2.3488913E-1,-3.322829E-2,1.05698064E-1,-5.53278E-2,1.7088608E-1,2.9987735E-1,4.353601E-2,2.0679319E-1,3.1357455E-1,1.2703507E-1,-5.477749E-2,4.2529367E-3,2.6772225E-1,-5.4876495E-2,1.3360338E-1,-2.7717924E-2,-5.491839E-2,-3.2087818E-2],"categories":[],"categories_nodes":[],"categories_segments":[],"categories_sizes":[],"default_left":[0,0,0,0,0,0,0,0,0,0,0,0,0,0,0,0,0,0,0,0,0,0,0,0,0,0,0,0,0,0,0,0,0,0,0,0,0,0,0,0,0,0,0,0,0,0,0,0,0,0,0,0,0,0,0],"id":13,"left_children":[1,3,5,-1,7,9,11,13,15,17,19,-1,21,23,25,-1,27,-1,29,31,33,-1,35,37,39,41,43,-1,-1,-1,45,47,49,51,53,-1,-1,-1,-1,-1,-1,-1,-1,-1,-1,-1,-1,-1,-1,-1,-1,-1,-1,-1,-1],"loss_changes":[6.076617E2,5.757708E2,1.6475888E2,0E0,6.146159E2,4.5880524E1,2.4194699E2,4.1823755E2,3.8701318E2,4.3483038E2,1.4823517E1,0E0,4.681482E1,3.7791428E1,2.6841187E2,0E0,3.620293E2,0E0,3.7719394E2,4.5594284E1,7.1849976E0,0E0,5.5263977E0,9.299137E0,5.298645E0,1.061355E2,3.5681146E2,0E0,0E0,0E0,4.7809753E1,1.6030022E1,1.2227981E2,1.0646194E1,4.8753967E0,0E0,0E0,0E0,0E0,0E0,0E0,0E0,0E0,0E0,0E0,0E0,0E0,0E0,0E0,0E0,0E0,0E0,0E0,0E0,0E0],"parents":[2147483647,0,0,1,1,2,2,4,4,5,5,6,6,7,7,8,8,9,9,10,10,12,12,13,13,14,14,16,16,18,18,19,19,20,20,22,22,23,23,24,24,25,25,26,26,30,30,31,31,32,32,33,33,34,34],"right_children":[2,4,6,-1,8,10,12,14,16,18,20,-1,22,24,26,-1,28,-1,30,32,34,-1,36,38,40,42,44,-1,-1,-1,46,48,50,52,54,-1,-1,-1,-1,-1,-1,-1,-1,-1,-1,-1,-1,-1,-1,-1,-1,-1,-1,-1,-1],"split_conditions":[-2.686664E-1,-5.6909347E-1,1.8444718E0,-5.6504853E-2,-3.192077E-1,-5.080893E-1,1.0002394E0,-5.508695E-1,1.1864263E0,-5.356057E-1,-6.311209E-1,-5.5734295E-2,-4.6697268E-1,-6.8279225E-1,-5.17289E-1,-5.6521386E-2,2.374501E0,-5.6623556E-2,-8.7571925E-1,1.6074804E0,-2.0256293E0,-4.6875823E-2,7.398774E-1,-1.0119741E0,-3.9996275E-1,2.8142225E-2,-7.932456E-2,2.7150676E-1,-5.5585135E-2,-5.6036163E-2,3.6077997E-1,1.5281973E0,1.5445197E0,-9.3680966E-1,1.2489796E0,2.775835E-1,1.9955307E-2,2.3488913E-1,-3.322829E-2,1.05698064E-1,-5.53278E-2,1.7088608E-1,2.9987735E-1,4.353601E-2,2.0679319E-1,3.1357455E-1,1.2703507E-1,-5.477749E-2,4.2529367E-3,2.6772225E-1,-5.4876495E-2,1.3360338E-1,-2.7717924E-2,-5.491839E-2,-3.2087818E-2],"split_indices":[39,34,6,0,34,34,1,21,34,34,18,0,27,22,34,0,34,0,11,34,2,0,14,39,32,33,29,0,0,0,22,0,2,7,24,0,0,0,0,0,0,0,0,0,0,0,0,0,0,0,0,0,0,0,0],"split_type":[0,0,0,0,0,0,0,0,0,0,0,0,0,0,0,0,0,0,0,0,0,0,0,0,0,0,0,0,0,0,0,0,0,0,0,0,0,0,0,0,0,0,0,0,0,0,0,0,0,0,0,0,0,0,0],"sum_hessian":[4.553413E3,2.0347247E3,2.5186882E3,4.6849475E2,1.56623E3,2.4113245E3,1.073637E2,9.8147235E2,5.8475757E2,7.0096735E2,1.710357E3,5.5987663E1,5.1376034E1,1.4048169E2,8.409907E2,4.4725854E2,1.3749904E2,5.573476E2,1.4361977E2,3.427354E2,1.3676217E3,4.780451E0,4.659558E1,6.3305063E0,1.3415117E2,2.7166562E2,5.693251E2,7.975557E1,5.7743465E1,5.8891636E1,8.472813E1,2.9298712E2,4.9748283E1,4.9102753E1,1.3185189E3,4.558368E1,1.0119044E0,4.968036E0,1.3624703E0,1.1866889E0,1.329645E2,1.564729E2,1.15192726E2,3.545209E2,2.1480418E2,6.487517E1,1.985296E1,2.3607999E2,5.690713E1,1.7146238E1,3.2602043E1,3.49304E0,4.560971E1,1.2117904E3,1.0672859E2],"tree_param":{"num_deleted":"0","num_feature":"42","num_nodes":"55","size_leaf_vector":"1"}},{"base_weights":[-1.2586896E-3,-2.135509E-1,2.161447E0,2.242893E0,-3.5468608E-1,2.6941636E0,-5.280324E-1,2.4695425E0,1.1027124E-1,-3.9370167E-1,1.4258789E0,-4.415056E-2,2.7283034E-1,-5.571214E-2,6.661117E-2,2.6324234E0,1.1784364E0,2.001512E-1,-3.3184958E-1,2.1043456E-1,-4.7095817E-1,2.6876572E-1,-5.4923624E-2,2.6911356E0,3.88509E-1,-4.3293306E-1,2.4316816E0,1.5442018E-1,-5.3507973E-2,1.6396378E0,-5.4353756E-1,-5.6634165E-2,-2.5051752E-1,2.7178916E-1,-3.3285167E-2,1.7012267E-1,-4.3641675E-2,1.6834881E-2,-5.1267523E-2,5.963061E-2,2.555013E-1,2.6026225E-1,-3.770677E-2,-5.5735916E-2,2.6210098E-2,1.8941562E-1,-5.6358546E-2],"categories":[],"categories_nodes":[],"categories_segments":[],"categories_sizes":[],"default_left":[0,0,0,0,0,0,0,0,0,0,0,0,0,0,0,0,0,0,0,0,0,0,0,0,0,0,0,0,0,0,0,0,0,0,0,0,0,0,0,0,0,0,0,0,0,0,0],"id":14,"left_children":[1,3,5,7,9,11,13,15,17,19,21,-1,-1,-1,-1,23,25,-1,27,29,31,-1,-1,33,35,37,39,-1,-1,41,43,-1,45,-1,-1,-1,-1,-1,-1,-1,-1,-1,-1,-1,-1,-1,-1],"loss_changes":[2.0945356E3,1.4410261E3,5.8566296E2,1.088938E2,2.735343E2,3.7658203E1,2.7419891E0,3.982068E1,1.9681387E1,1.7960071E2,2.119896E2,0E0,0E0,0E0,0E0,2.2725342E1,5.0882828E1,0E0,8.181711E0,4.7151425E2,7.1561584E1,0E0,0E0,1.511731E1,6.990027E0,6.446121E-1,1.652504E0,0E0,0E0,2.943872E2,3.3381271E0,0E0,6.9378845E2,0E0,0E0,0E0,0E0,0E0,0E0,0E0,0E0,0E0,0E0,0E0,0E0,0E0,0E0],"parents":[2147483647,0,0,1,1,2,2,3,3,4,4,5,5,6,6,7,7,8,8,9,9,10,10,15,15,16,16,18,18,19,19,20,20,23,23,24,24,25,25,26,26,29,29,30,30,32,32],"right_children":[2,4,6,8,10,12,14,16,18,20,22,-1,-1,-1,-1,24,26,-1,28,30,32,-1,-1,34,36,38,40,-1,-1,42,44,-1,46,-1,-1,-1,-1,-1,-1,-1,-1,-1,-1,-1,-1,-1,-1],"split_conditions":[1.6979613E0,-6.932515E-1,3.3007908E0,-1.16001174E-1,2.849005E0,-1.3396529E0,1.1042525E0,6.725342E-1,-6.99694E-1,-6.3747865E-1,-1.1784451E0,-4.415056E-2,2.7283034E-1,-5.571214E-2,6.661117E-2,2.059297E0,-1.6437288E-1,2.001512E-1,1.0929239E0,-5.836617E-1,-2.4102119E-1,2.6876572E-1,-5.4923624E-2,1.971224E0,-7.232821E-1,-8.1284654E-1,-1.5804051E-1,1.5442018E-1,-5.3507973E-2,-2.6298127E-1,1.8765576E0,-5.6634165E-2,-1.3507244E-1,2.7178916E-1,-3.3285167E-2,1.7012267E-1,-4.3641675E-2,1.6834881E-2,-5.1267523E-2,5.963061E-2,2.555013E-1,2.6026225E-1,-3.770677E-2,-5.5735916E-2,2.6210098E-2,1.8941562E-1,-5.6358546E-2],"split_indices":[34,36,34,39,39,35,35,10,34,34,19,0,0,0,0,31,14,0,0,13,34,0,0,14,34,39,29,0,0,35,41,0,34,0,0,0,0,0,0,0,0,0,0,0,0,0,0],"split_type":[0,0,0,0,0,0,0,0,0,0,0,0,0,0,0,0,0,0,0,0,0,0,0,0,0,0,0,0,0,0,0,0,0,0,0,0,0,0,0,0,0,0,0,0,0,0,0],"sum_hessian":[4.5600054E3,4.153224E3,4.067812E2,2.2484947E2,3.9283748E3,3.3952774E2,6.725344E1,2.0310591E2,2.174356E1,3.8449045E3,8.347035E1,3.5282817E0,3.3599948E2,6.61749E1,1.0785468E0,1.7943073E2,2.3675182E1,3.4516249E0,1.8291935E1,4.3574094E2,3.4091636E3,5.0712517E1,3.275783E1,1.7466139E2,4.7693357E0,1.0644056E1,1.3031126E1,1.1429435E0,1.7148993E1,1.5007996E2,2.8566098E2,2.3784514E3,1.0307122E3,1.732299E2,1.4314826E0,1.4305692E0,3.3387668E0,1.1162212E0,9.527835E0,1.1879175E0,1.1843208E1,1.0138005E2,4.86999E1,2.8114578E2,4.515188E0,1.3064912E2,9.00063E2],"tree_param":{"num_deleted":"0","num_feature":"42","num_nodes":"47","size_leaf_vector":"1"}},{"base_weights":[1.4339506E-3,3.5757124E-1,-3.614401E-1,-4.9595943E-1,7.3084086E-1,1.5825782E0,-4.5615897E-1,1.5035886E0,-5.181513E-1,-5.706616E-2,9.440151E-1,-4.6920952E-1,2.6170323E0,-5.660397E-2,-2.8726128E-1,4.2159563E-1,2.3012236E-1,-5.389049E-1,2.7587107E-1,7.063489E-1,1.7953253E0,1.0220327E-1,-5.513693E-2,-3.851898E-2,2.7159923E-1,1.4565085E0,-4.2236823E-1,1.2576634E-1,-3.848454E-2,5.125742E-1,-5.4323685E-1,-5.2315213E-2,1.8934919E0,3.5145727E-1,1.409675E0,2.9504213E0,1.2086684E0,-5.4297637E-2,2.727779E-1,-4.741907E-1,1.6244854E0,-3.0525466E-2,1.0838883E-1,5.3535547E-2,-5.4615755E-2,2.3921776E-1,-2.917981E-2,1.4835894E-1,-6.681276E-3,2.8174946E-1,4.7613673E-2,-4.8452333E-2,3.1559384E-1,2.303996E-1,1.1920507E-2,-4.979215E-2,1.6101235E-1,2.6978478E-1,-3.6781784E-2],"categories":[],"categories_nodes":[],"categories_segments":[],"categories_sizes":[],"default_left":[0,0,0,0,0,0,0,0,0,0,0,0,0,0,0,0,0,0,0,0,0,0,0,0,0,0,0,0,0,0,0,0,0,0,0,0,0,0,0,0,0,0,0,0,0,0,0,0,0,0,0,0,0,0,0,0,0,0,0],"id":15,"left_children":[1,3,5,7,9,11,13,15,17,-1,19,21,23,-1,25,27,-1,29,31,33,35,-1,-1,-1,-1,37,39,-1,-1,41,43,-1,45,47,49,51,53,-1,-1,55,57,-1,-1,-1,-1,-1,-1,-1,-1,-1,-1,-1,-1,-1,-1,-1,-1,-1,-1],"loss_changes":[5.881197E2,7.3209753E2,4.157824E2,3.1814377E1,4.439909E2,2.2397928E2,3.9741302E1,5.8766346E0,1.155986E1,0E0,2.766819E2,4.977294E0,2.1820526E1,0E0,2.0075742E2,3.5793757E0,0E0,3.3538513E0,2.4643436E1,2.6797687E2,1.9916565E2,0E0,0E0,0E0,0E0,1.5732956E2,8.448363E1,0E0,0E0,1.8656116E0,2.4121857E0,0E0,7.5276585E0,3.3924854E2,4.722967E2,7.21745E1,2.3850653E2,0E0,0E0,3.8912018E1,4.3149395E1,0E0,0E0,0E0,0E0,0E0,0E0,0E0,0E0,0E0,0E0,0E0,0E0,0E0,0E0,0E0,0E0,0E0,0E0],"parents":[2147483647,0,0,1,1,2,2,3,3,4,4,5,5,6,6,7,7,8,8,10,10,11,11,12,12,14,14,15,15,17,17,18,18,19,19,20,20,25,25,26,26,29,29,30,30,32,32,33,33,34,34,35,35,36,36,39,39,40,40],"right_children":[2,4,6,8,10,12,14,16,18,-1,20,22,24,-1,26,28,-1,30,32,34,36,-1,-1,-1,-1,38,40,-1,-1,42,44,-1,46,48,50,52,54,-1,-1,56,58,-1,-1,-1,-1,-1,-1,-1,-1,-1,-1,-1,-1,-1,-1,-1,-1,-1,-1],"split_conditions":[-4.3423203E-1,-6.429363E-1,-1.4308921E0,-1.4810233E0,-6.817921E-1,-2.4894746E-1,3.9699337E-1,3.6993998E-1,2.0235486E0,-5.706616E-2,7.6105845E-1,-2.3296152E-1,1.0635061E0,-5.660397E-2,4.6649534E-1,2.3177838E-1,2.3012236E-1,-7.4361974E-1,-6.992835E-1,2.9736057E-2,-5.417579E-1,1.0220327E-1,-5.513693E-2,-3.851898E-2,2.7159923E-1,1.5281973E0,1.4636217E0,1.2576634E-1,-3.848454E-2,-2.3278925E0,-1.9256625E0,-5.2315213E-2,-1.0834429E0,-7.9305977E-1,1.863012E-1,-6.604258E-1,-1.0669014E-1,-5.4297637E-2,2.727779E-1,2.8551252E0,-6.191779E-1,-3.0525466E-2,1.0838883E-1,5.3535547E-2,-5.4615755E-2,2.3921776E-1,-2.917981E-2,1.4835894E-1,-6.681276E-3,2.8174946E-1,4.7613673E-2,-4.8452333E-2,3.1559384E-1,2.303996E-1,1.1920507E-2,-4.979215E-2,1.6101235E-1,2.6978478E-1,-3.6781784E-2],"split_indices":[36,17,5,18,34,21,34,5,37,0,11,12,3,0,34,13,0,21,11,32,34,0,0,0,0,0,10,0,0,14,22,0,0,7,32,34,6,0,0,23,2,0,0,0,0,0,0,0,0,0,0,0,0,0,0,0,0,0,0],"split_type":[0,0,0,0,0,0,0,0,0,0,0,0,0,0,0,0,0,0,0,0,0,0,0,0,0,0,0,0,0,0,0,0,0,0,0,0,0,0,0,0,0,0,0,0,0,0,0,0,0,0,0,0,0,0,0,0,0,0,0],"sum_hessian":[4.548848E3,2.2957415E3,2.2531067E3,6.984085E2,1.5973329E3,1.03948616E2,2.149158E3,6.93342E0,6.914751E2,2.245712E2,1.3727617E3,3.50249E1,6.892371E1,1.3006415E3,8.4851654E2,3.5909066E0,3.3425133E0,6.7417523E2,1.7299845E1,1.0745906E3,2.9817117E2,1.231577E0,3.379332E1,2.1070876E0,6.681663E1,6.0312145E1,7.882044E2,1.4883525E0,2.102554E0,2.284733E0,6.718905E2,1.2032826E1,5.2670183E0,7.152048E2,3.5938577E2,9.907285E1,1.9909834E2,2.3664665E1,3.664748E1,7.6949066E2,1.8713726E1,1.1311721E0,1.153561E0,1.3221987E0,6.705683E2,4.211318E0,1.0557004E0,1.9226198E2,5.2294275E2,1.4248845E2,2.1689732E2,5.5163717E0,9.355648E1,9.872606E1,1.0037228E2,7.615809E2,7.909797E0,1.1931462E1,6.7822638E0],"tree_param":{"num_deleted":"0","num_feature":"42","num_nodes":"59","size_leaf_vector":"1"}},{"base_weights":[-5.397316E-4,-4.3524572E-1,3.484443E-1,-4.7862568E-1,8.081108E-1,-1.09947436E-1,7.884681E-1,-5.4019797E-1,-3.286523E-1,1.7835305E0,-9.282406E-2,8.9423096E-1,-4.0152237E-1,2.7312496E-1,1.0766708E0,-4.3173164E-1,-5.5200964E-1,6.310781E-1,-4.0622434E-1,2.03177E0,-4.2634E-2,1.406051E0,-5.0843745E-1,-5.557676E-2,1.4667841E0,-5.614754E-2,-2.0279425E-1,1.5398239E0,-1.1179884E-1,3.5432047E-1,1.4685823E0,-4.8292503E-1,2.4499872E-1,-4.6436727E-1,-5.5814165E-1,-4.8172447E-1,1.4614875E0,-2.4580878E-1,-5.520473E-1,5.995133E-2,2.0682667E-1,-3.4516323E-2,1.8798195E-1,-5.410554E-2,1.589559E-2,1.8125592E0,-3.0959198E-1,-5.466869E-1,3.6629882E-1,-5.4426994E-2,1.8586103E0,-3.8037288E-1,6.0454404E-1,1.300353E0,-5.0205535E-1,1.6181248E0,-5.4876488E-2,3.0427624E-2,-5.3425707E-2,-3.8680702E-2,2.1525836E-1,-5.3035527E-2,5.062735E-2,-2.7616834E-2,-5.598427E-2,-5.323425E-2,2.1423751E-2,-3.2912772E-2,2.0043635E-1,-4.2800497E-2,1.075109E-1,-3.6805913E-2,-5.5912673E-2,-1.985407E-2,2.075969E-1,-4.8472103E-2,1.940709E-1,1.8634401E-2,-5.6141745E-2,1.6298784E-1,-5.5753943E-2,7.1596935E-2,2.1105576E-1,1.19729685E-2,-5.6222852E-2,2.1809104E-1,-5.553442E-2,-2.4731377E-2,1.9647796E-1,9.607255E-2,-5.4000545E-2,-5.626605E-2,1.754199E-1],"categories":[],"categories_nodes":[],"categories_segments":[],"categories_sizes":[],"default_left":[0,0,0,0,0,0,0,0,0,0,0,0,0,0,0,0,0,0,0,0,0,0,0,0,0,0,0,0,0,0,0,0,0,0,0,0,0,0,0,0,0,0,0,0,0,0,0,0,0,0,0,0,0,0,0,0,0,0,0,0,0,0,0,0,0,0,0,0,0,0,0,0,0,0,0,0,0,0,0,0,0,0,0,0,0,0,0,0,0,0,0,0,0],"id":16,"left_children":[1,3,5,7,9,11,13,15,17,19,21,23,25,27,29,31,33,35,37,39,-1,41,43,-1,45,-1,47,49,51,53,55,57,59,61,63,65,67,69,71,-1,-1,-1,-1,-1,-1,73,75,77,79,-1,81,83,85,87,89,91,-1,-1,-1,-1,-1,-1,-1,-1,-1,-1,-1,-1,-1,-1,-1,-1,-1,-1,-1,-1,-1,-1,-1,-1,-1,-1,-1,-1,-1,-1,-1,-1,-1,-1,-1,-1,-1],"loss_changes":[6.8612305E2,1.0901608E2,5.0610385E2,1.7799072E1,6.016113E1,3.603755E2,1.8983466E2,1.527832E0,4.263009E1,1.8875893E1,2.3415861E1,2.3077856E2,3.0198227E1,2.246918E2,2.318042E2,4.9674473E0,4.0701294E-1,4.03985E1,1.2197052E1,3.1188965E-1,0E0,7.432621E0,7.2306156E-1,0E0,1.2270523E2,0E0,8.373171E1,7.235617E1,6.835374E1,2.3556705E2,1.6128857E2,5.43437E0,1.3496167E1,5.8415794E0,3.9871216E-1,7.872119E-1,2.481292E1,6.1312298E1,1.5287781E-1,0E0,0E0,0E0,0E0,0E0,0E0,8.8668945E1,1.4046391E1,2.9817505E0,1.8928052E2,0E0,2.536731E1,2.3544964E1,1.7846066E2,1.4244124E2,9.007435E0,1.479524E2,0E0,0E0,0E0,0E0,0E0,0E0,0E0,0E0,0E0,0E0,0E0,0E0,0E0,0E0,0E0,0E0,0E0,0E0,0E0,0E0,0E0,0E0,0E0,0E0,0E0,0E0,0E0,0E0,0E0,0E0,0E0,0E0,0E0,0E0,0E0,0E0,0E0],"parents":[2147483647,0,0,1,1,2,2,3,3,4,4,5,5,6,6,7,7,8,8,9,9,10,10,11,11,12,12,13,13,14,14,15,15,16,16,17,17,18,18,19,19,21,21,22,22,24,24,26,26,27,27,28,28,29,29,30,30,31,31,32,32,33,33,34,34,35,35,36,36,37,37,38,38,45,45,46,46,47,47,48,48,50,50,51,51,52,52,53,53,54,54,55,55],"right_children":[2,4,6,8,10,12,14,16,18,20,22,24,26,28,30,32,34,36,38,40,-1,42,44,-1,46,-1,48,50,52,54,56,58,60,62,64,66,68,70,72,-1,-1,-1,-1,-1,-1,74,76,78,80,-1,82,84,86,88,90,92,-1,-1,-1,-1,-1,-1,-1,-1,-1,-1,-1,-1,-1,-1,-1,-1,-1,-1,-1,-1,-1,-1,-1,-1,-1,-1,-1,-1,-1,-1,-1,-1,-1,-1,-1,-1,-1],"split_conditions":[-7.424392E-2,1.9890893E0,-3.0046698E-1,-3.8377762E-1,1.2187165E-1,-5.9792924E-1,-3.7016854E-1,-3.053959E-1,-6.604258E-1,-2.4202622E-1,-1.5179863E0,1.0002394E0,1.0002394E0,-6.604258E-1,-3.8149384E-1,7.0685387E-1,-4.46278E-1,-6.9784975E-1,1.7600878E-1,-1.0451381E0,-4.2634E-2,-1.347818E0,1.4774586E0,-5.557676E-2,7.051601E-1,-5.614754E-2,-3.2144833E-1,-7.232821E-1,7.9009265E-1,-6.201351E-1,1.6780716E0,-6.604258E-1,1.8573329E-1,1.863012E-1,-2.1640255E0,-1.5433864E-1,-5.09608E-1,1.1941716E-1,-6.48745E-1,5.995133E-2,2.0682667E-1,-3.4516323E-2,1.8798195E-1,-5.410554E-2,1.589559E-2,-8.0830234E-1,-4.0021566E-1,-1.0083907E0,-2.9808125E-1,-5.4426994E-2,-9.553693E-1,-2.2676188E-2,1.6780716E0,-5.620693E-1,-1.0461195E0,-1.145499E0,-5.4876488E-2,3.0427624E-2,-5.3425707E-2,-3.8680702E-2,2.1525836E-1,-5.3035527E-2,5.062735E-2,-2.7616834E-2,-5.598427E-2,-5.323425E-2,2.1423751E-2,-3.2912772E-2,2.0043635E-1,-4.2800497E-2,1.075109E-1,-3.6805913E-2,-5.5912673E-2,-1.985407E-2,2.075969E-1,-4.8472103E-2,1.940709E-1,1.8634401E-2,-5.6141745E-2,1.6298784E-1,-5.5753943E-2,7.1596935E-2,2.1105576E-1,1.19729685E-2,-5.6222852E-2,2.1809104E-1,-5.553442E-2,-2.4731377E-2,1.9647796E-1,9.607255E-2,-5.4000545E-2,-5.626605E-2,1.754199E-1],"split_indices":[6,39,40,6,18,34,37,22,34,3,2,1,1,34,34,39,30,34,7,3,0,11,5,0,17,0,36,34,34,34,34,34,11,32,2,21,11,23,13,0,0,0,0,0,0,12,9,4,34,0,39,7,34,23,8,19,0,0,0,0,0,0,0,0,0,0,0,0,0,0,0,0,0,0,0,0,0,0,0,0,0,0,0,0,0,0,0,0,0,0,0,0,0],"split_type":[0,0,0,0,0,0,0,0,0,0,0,0,0,0,0,0,0,0,0,0,0,0,0,0,0,0,0,0,0,0,0,0,0,0,0,0,0,0,0,0,0,0,0,0,0,0,0,0,0,0,0,0,0,0,0,0,0,0,0,0,0,0,0,0,0,0,0,0,0,0,0,0,0,0,0,0,0,0,0,0,0,0,0,0,0,0,0,0,0,0,0,0,0],"sum_hessian":[4.520732E3,2.0130116E3,2.5077207E3,1.9457408E3,6.727069E1,1.2285928E3,1.2791278E3,1.3775708E3,5.6817004E2,3.182976E1,3.544093E1,2.7599713E2,9.5259564E2,4.5947516E2,8.1965265E2,1.3896971E2,1.2386012E3,4.1955574E1,5.262145E2,2.868779E1,3.1419697E0,7.1764793E0,2.826445E1,7.8138824E1,1.9785829E2,5.267765E2,4.2581918E2,1.06385086E2,3.530901E2,2.8896045E2,5.306922E2,1.294625E2,9.50721E0,8.601047E1,1.1525907E3,1.8108671E1,2.3846903E1,2.5184872E2,2.7436575E2,1.1458797E0,2.754191E1,1.5858974E0,5.590582E0,2.712791E1,1.1365385E0,1.6560298E2,3.225532E1,2.654512E2,1.6036798E2,1.4020105E1,9.2364975E1,2.571481E2,9.5941956E1,1.3704706E2,1.5191339E2,4.9425204E2,3.644018E1,7.623585E0,1.21838905E2,7.7406716E0,1.7665387E0,8.096008E1,5.0503845E0,7.8909826E0,1.1446997E3,1.7100065E1,1.0086063E0,5.6394734E0,1.820743E1,2.2191556E2,2.9933172E1,1.2129124E1,2.6223663E2,1.9206905E1,1.4639607E2,3.065426E1,1.6010616E0,4.9997716E0,2.6045142E2,6.740735E1,9.296063E1,1.7380775E1,7.49842E1,6.866396E1,1.8848416E2,4.02963E1,5.564566E1,4.1352154E1,9.56949E1,3.226664E0,1.4868672E2,2.8844345E1,4.6540768E2],"tree_param":{"num_deleted":"0","num_feature":"42","num_nodes":"93","size_leaf_vector":"1"}},{"base_weights":[-8.996652E-4,-2.8975248E-1,6.634284E-1,1.5320463E-2,-5.0813264E-1,-5.28458E-2,1.4947041E0,-5.273302E-1,1.0461771E0,-5.361935E-1,-8.717231E-2,1.9094262E0,-4.6533385E-1,1.7437111E0,-5.5414896E-2,-5.5050105E-1,-1.1543986E-1,1.5419472E0,-2.7712673E-1,8.108637E-1,-5.395864E-1,1.9476618E0,-5.556206E-2,2.1423426E0,-1.7456642E-1,4.257185E-1,-5.1544225E-1,2.0024133E0,5.023264E-1,-5.5880934E-2,-3.994607E-1,1.9014939E0,-5.4708987E-2,2.1394749E-1,9.310375E-1,-5.576221E-2,1.9601656E0,1.8081374E-1,-3.744274E-2,-5.604727E-1,-4.0542695E-1,-3.1407088E-2,2.0913272E0,4.5974817E-2,2.1595864E0,1.359305E-1,-4.464441E-1,-5.3740717E-2,1.8797897E0,7.619955E-1,-5.3686845E-1,2.044225E0,-5.00125E-2,-2.5147104E-1,1.8165967E0,1.7104894E-1,-5.4951835E-2,5.618138E-2,2.0476317E-1,1.9409083E-1,1.9733993E-2,5.0847936E-2,2.0723532E-1,-2.552045E-2,-5.617984E-2,1.7229828E-1,-5.5532582E-2,2.1503673E-1,5.9136797E-2,6.010541E-2,2.1701632E-1,-5.2169885E-2,1.7725019E-2,2.0949169E-1,-3.073187E-2,-4.8137426E-2,1.949349E-1,-5.486793E-2,2.4940511E-2,1.13496184E-1,2.0925418E-1,-4.7409296E-2,1.9555826E-1,2.045952E-1,-4.4908095E-2],"categories":[],"categories_nodes":[],"categories_segments":[],"categories_sizes":[],"default_left":[0,0,0,0,0,0,0,0,0,0,0,0,0,0,0,0,0,0,0,0,0,0,0,0,0,0,0,0,0,0,0,0,0,0,0,0,0,0,0,0,0,0,0,0,0,0,0,0,0,0,0,0,0,0,0,0,0,0,0,0,0,0,0,0,0,0,0,0,0,0,0,0,0,0,0,0,0,0,0,0,0,0,0,0,0],"id":17,"left_children":[1,3,5,7,9,11,13,15,17,19,21,23,25,27,-1,29,31,33,35,37,39,41,-1,43,45,47,49,51,53,-1,55,57,-1,-1,59,-1,61,-1,-1,63,65,-1,67,-1,69,-1,71,-1,73,75,77,79,-1,81,83,-1,-1,-1,-1,-1,-1,-1,-1,-1,-1,-1,-1,-1,-1,-1,-1,-1,-1,-1,-1,-1,-1,-1,-1,-1,-1,-1,-1,-1,-1],"loss_changes":[8.6706714E2,2.098135E2,8.153825E2,7.360392E2,2.1634064E1,5.970115E2,3.243181E2,8.163498E0,2.981206E2,8.301086E0,1.1155518E2,6.25636E1,2.7427155E1,1.805592E2,0E0,8.005829E-1,4.2112083E1,1.18559814E2,7.9233154E1,6.259019E0,4.5834045E0,7.7760544E0,0E0,2.3529663E0,6.3637037E0,4.7212532E1,1.6212173E1,4.9941895E1,9.837293E1,0E0,1.5518242E1,5.2152824E-1,0E0,0E0,1.21920425E2,0E0,1.2414932E0,0E0,0E0,4.567566E-1,7.589613E1,0E0,5.6430054E-1,0E0,5.727539E-1,0E0,6.78179E-1,0E0,6.9332924E0,1.5609676E1,5.415695E0,1.7835693E1,0E0,3.222011E1,1.9702217E1,0E0,0E0,0E0,0E0,0E0,0E0,0E0,0E0,0E0,0E0,0E0,0E0,0E0,0E0,0E0,0E0,0E0,0E0,0E0,0E0,0E0,0E0,0E0,0E0,0E0,0E0,0E0,0E0,0E0,0E0],"parents":[2147483647,0,0,1,1,2,2,3,3,4,4,5,5,6,6,7,7,8,8,9,9,10,10,11,11,12,12,13,13,15,15,16,16,17,17,18,18,19,19,20,20,21,21,23,23,24,24,25,25,26,26,27,27,28,28,30,30,31,31,34,34,36,36,39,39,40,40,42,42,44,44,46,46,48,48,49,49,50,50,51,51,53,53,54,54],"right_children":[2,4,6,8,10,12,14,16,18,20,22,24,26,28,-1,30,32,34,36,38,40,42,-1,44,46,48,50,52,54,-1,56,58,-1,-1,60,-1,62,-1,-1,64,66,-1,68,-1,70,-1,72,-1,74,76,78,80,-1,82,84,-1,-1,-1,-1,-1,-1,-1,-1,-1,-1,-1,-1,-1,-1,-1,-1,-1,-1,-1,-1,-1,-1,-1,-1,-1,-1,-1,-1,-1,-1],"split_conditions":[3.5641572E-1,-5.9664404E-1,6.553682E-2,-7.58679E-1,2.4603538E-1,-7.9209745E-2,6.063565E-1,-7.7830994E-1,1.1834849E-1,-2.1890657E-1,-3.281666E-1,9.4015196E-2,-7.0363146E-1,2.1752315E0,-5.5414896E-2,-7.9305977E-1,-1.2350571E0,-6.481695E-1,-9.0160206E-2,-2.968139E-1,6.959881E-3,-5.7255E-1,-5.556206E-2,-1.2211577E0,-6.481695E-1,-2.229836E-1,2.6190653E-2,1.7834592E0,1.1776351E0,-5.5880934E-2,-1.2484891E0,-1.1649661E0,-5.4708987E-2,2.1394749E-1,1.0002394E0,-5.576221E-2,-4.486616E-2,1.8081374E-1,-3.744274E-2,-7.238456E-1,-4.9603653E-1,-3.1407088E-2,1.225445E0,4.5974817E-2,-7.5825655E-1,1.359305E-1,2.3093477E-1,-5.3740717E-2,6.891788E-1,7.808369E-1,4.7834054E-2,-1.336203E0,-5.00125E-2,4.6649534E-1,3.2055598E-2,1.7104894E-1,-5.4951835E-2,5.618138E-2,2.0476317E-1,1.9409083E-1,1.9733993E-2,5.0847936E-2,2.0723532E-1,-2.552045E-2,-5.617984E-2,1.7229828E-1,-5.5532582E-2,2.1503673E-1,5.9136797E-2,6.010541E-2,2.1701632E-1,-5.2169885E-2,1.7725019E-2,2.0949169E-1,-3.073187E-2,-4.8137426E-2,1.949349E-1,-5.486793E-2,2.4940511E-2,1.13496184E-1,2.0925418E-1,-4.7409296E-2,1.9555826E-1,2.045952E-1,-4.4908095E-2],"split_indices":[7,28,39,7,7,27,34,7,34,29,31,5,21,41,0,7,23,0,7,6,7,34,0,22,0,34,23,5,39,0,23,24,0,0,1,0,7,0,0,31,23,0,5,0,30,0,21,0,15,7,29,5,0,34,21,0,0,0,0,0,0,0,0,0,0,0,0,0,0,0,0,0,0,0,0,0,0,0,0,0,0,0,0,0,0],"split_type":[0,0,0,0,0,0,0,0,0,0,0,0,0,0,0,0,0,0,0,0,0,0,0,0,0,0,0,0,0,0,0,0,0,0,0,0,0,0,0,0,0,0,0,0,0,0,0,0,0,0,0,0,0,0,0,0,0,0,0,0,0,0,0,0,0,0,0,0,0,0,0,0,0,0,0,0,0,0,0,0,0,0,0,0,0],"sum_hessian":[4.51649E3,3.148202E3,1.3682883E3,1.3137908E3,1.8344111E3,7.354873E2,6.328011E2,8.610277E2,4.52763E2,1.7195159E3,1.1489523E2,1.27121376E2,6.083659E2,5.6436053E2,6.844053E1,8.148518E2,4.617591E1,3.2924686E2,1.2351615E2,3.7222683E0,1.7157936E3,2.0909853E1,9.398538E1,1.1431682E2,1.2804556E1,3.1990974E1,5.7637494E2,4.6652463E2,9.783591E1,7.6980743E2,4.5044353E1,7.539864E0,3.8636047E1,1.6518153E2,1.6406532E2,1.104229E2,1.3093256E1,1.7360882E0,1.9861802E0,1.4819082E3,2.3388545E2,1.1780243E0,1.9731829E1,1.4402947E0,1.12876526E2,1.32568E0,1.1478876E1,1.9623482E1,1.2367493E1,8.937762E0,5.674372E2,4.590383E2,7.486337E0,6.2689255E1,3.5146652E1,2.300354E0,4.2744E1,1.2180567E0,6.3218074E0,6.834669E1,9.5718636E1,1.3361485E0,1.1757108E1,7.2440834E0,1.4746641E3,1.46977825E1,2.1918767E2,1.8567379E1,1.1644502E0,1.1506386E0,1.1172589E2,1.038889E1,1.0899856E0,1.1298326E1,1.0691669E0,4.6563354E0,4.281427E0,5.5933734E2,8.099802E0,2.4397415E1,4.3464087E2,5.7658524E1,5.0307293E0,3.2003872E1,3.1427794E0],"tree_param":{"num_deleted":"0","num_feature":"42","num_nodes":"85","size_leaf_vector":"1"}},{"base_weights":[-3.0740842E-3,2.1021848E0,-4.7073352E-1,2.1093438E0,-3.8758513E-2,2.765699E-1,-5.252368E-1,2.113603E0,-3.3351354E-2,-5.479707E-1,2.0801861E0,-1.4100878E-1,-5.593871E-1,2.1165605E0,1.09288795E-2,-5.5929333E-2,3.4893278E-2,-4.478198E-2,2.2116613E0,1.890106E0,-5.5032367E-1,-4.3344742E-1,-5.6153644E-2,2.1177065E-1,6.358925E-2,6.319463E-2,2.2265139E-1,2.1288815E-1,-4.5328345E-2,4.6979215E-2,-5.5859327E-2,-5.530293E-2,1.8542728E-1],"categories":[],"categories_nodes":[],"categories_segments":[],"categories_sizes":[],"default_left":[0,0,0,0,0,0,0,0,0,0,0,0,0,0,0,0,0,0,0,0,0,0,0,0,0,0,0,0,0,0,0,0,0],"id":18,"left_children":[1,3,5,7,-1,9,11,13,-1,15,17,19,21,23,-1,-1,-1,-1,25,27,29,31,-1,-1,-1,-1,-1,-1,-1,-1,-1,-1,-1],"loss_changes":[4.450994E3,1.5463623E1,1.5081293E2,9.231934E0,0E0,3.7606073E2,4.516449E1,4.6188965E0,0E0,1.9601822E0,2.7348267E1,2.3613728E2,6.137085E-1,4.0283203E-2,0E0,0E0,0E0,0E0,3.656006E-1,2.7629944E1,2.2544098E0,1.6759506E1,0E0,0E0,0E0,0E0,0E0,0E0,0E0,0E0,0E0,0E0,0E0],"parents":[2147483647,0,0,1,1,2,2,3,3,5,5,6,6,7,7,9,9,10,10,11,11,12,12,13,13,18,18,19,19,20,20,21,21],"right_children":[2,4,6,8,-1,10,12,14,-1,16,18,20,22,24,-1,-1,-1,-1,26,28,30,32,-1,-1,-1,-1,-1,-1,-1,-1,-1,-1,-1],"split_conditions":[-9.2945445E-1,2.166623E0,-9.317336E-1,9.411178E-3,-3.8758513E-2,-9.278077E-1,-6.696294E-1,-6.4404666E-1,-3.3351354E-2,1.3332678E0,-1.6866243E0,-8.354526E-1,-9.1543204E-1,1.4590458E0,1.09288795E-2,-5.5929333E-2,3.4893278E-2,-4.478198E-2,-3.4686157E-1,-3.5595164E-1,-6.6547877E-1,-8.783625E-1,-5.6153644E-2,2.1177065E-1,6.358925E-2,6.319463E-2,2.2265139E-1,2.1288815E-1,-4.5328345E-2,4.6979215E-2,-5.5859327E-2,-5.530293E-2,1.8542728E-1],"split_indices":[12,5,4,34,0,31,34,25,0,14,2,6,4,26,0,0,0,0,18,3,7,23,0,0,0,0,0,0,0,0,0,0,0],"split_type":[0,0,0,0,0,0,0,0,0,0,0,0,0,0,0,0,0,0,0,0,0,0,0,0,0,0,0,0,0,0,0,0,0],"sum_hessian":[4.518863E3,8.207234E2,3.6981392E3,8.1852264E2,2.2007372E0,2.5110612E2,3.4470332E3,8.1723254E2,1.2901174E0,1.7280351E2,7.830261E1,2.8178433E2,3.1652488E3,8.1597253E2,1.259976E0,1.7102094E2,1.7825731E0,3.752051E0,7.455056E1,4.665479E1,2.3512953E2,5.651378E1,3.108735E3,8.1491144E2,1.0610758E0,1.1000249E0,7.345054E1,4.2423645E1,4.2311454E0,1.4419781E0,2.3368755E2,5.4427074E1,2.0867066E0],"tree_param":{"num_deleted":"0","num_feature":"42","num_nodes":"33","size_leaf_vector":"1"}},{"base_weights":[3.613259E-3,-5.2975025E-2,2.104967E0,-1.279658E-1,1.2810766E0,2.1166117E-1,5.5058885E-2,3.5989676E-2,-5.4681206E-1,2.0264335E0,4.125878E-1,-5.6067105E-2,2.6105908E-1,-5.5599946E-1,8.5310215E-1,-4.4513933E-2,2.095252E0,1.1020541E0,-5.141327E-1,5.4512876E-1,-3.2613814E-1,-5.610446E-2,-7.6086625E-2,2.0558278E-1,-4.4490065E-2,2.1185532E-1,-2.930445E-2,8.24044E-2,1.786056E0,-5.5486213E-2,3.89416E-2,-1.8577253E-2,8.125702E-2,-3.8144257E-2,2.1228805E-1,1.7704605E-1,-5.1536825E-2,1.8474375E-1,-4.0406432E-2,2.128609E-1,-6.1294762E-3],"categories":[],"categories_nodes":[],"categories_segments":[],"categories_sizes":[],"default_left":[0,0,0,0,0,0,0,0,0,0,0,0,0,0,0,0,0,0,0,0,0,0,0,0,0,0,0,0,0,0,0,0,0,0,0,0,0,0,0,0,0],"id":19,"left_children":[1,3,5,7,9,-1,-1,11,13,15,17,-1,19,21,23,-1,25,27,29,31,33,-1,35,-1,-1,-1,-1,37,39,-1,-1,-1,-1,-1,-1,-1,-1,-1,-1,-1,-1],"loss_changes":[5.3711084E2,4.4019583E2,9.785156E-1,2.860603E2,1.5075876E2,0E0,0E0,4.0227127E2,1.5546234E1,2.232489E1,7.0475555E1,0E0,3.6297205E2,2.777588E0,1.3458624E1,0E0,7.4400635E0,4.383059E1,1.958888E0,2.8675528E2,9.6939995E1,0E0,1.1680372E1,0E0,0E0,0E0,0E0,2.3384129E1,2.3981941E1,0E0,0E0,0E0,0E0,0E0,0E0,0E0,0E0,0E0,0E0,0E0,0E0],"parents":[2147483647,0,0,1,1,2,2,3,3,4,4,7,7,8,8,9,9,10,10,12,12,13,13,14,14,16,16,17,17,18,18,19,19,20,20,22,22,27,27,28,28],"right_children":[2,4,6,8,10,-1,-1,12,14,16,18,-1,20,22,24,-1,26,28,30,32,34,-1,36,-1,-1,-1,-1,38,40,-1,-1,-1,-1,-1,-1,-1,-1,-1,-1,-1,-1],"split_conditions":[3.3007908E0,2.4634361E0,1.1492304E0,-2.229836E-1,1.2912287E0,2.1166117E-1,5.5058885E-2,-5.753734E-1,2.9640603E0,1.4344736E0,1.6912733E-1,-5.6067105E-2,-4.038421E-2,1.9756027E0,-1.3507244E-1,-4.4513933E-2,3.104757E0,2.700563E0,3.798833E-1,-6.4771855E-1,-2.7988636E-1,-5.610446E-2,-2.1888022E-1,2.0558278E-1,-4.4490065E-2,2.1185532E-1,-2.930445E-2,-1.1465614E0,2.8908405E0,-5.5486213E-2,3.89416E-2,-1.8577253E-2,8.125702E-2,-3.8144257E-2,2.1228805E-1,1.7704605E-1,-5.1536825E-2,1.8474375E-1,-4.0406432E-2,2.128609E-1,-6.1294762E-3],"split_indices":[34,33,35,34,24,0,0,34,7,3,17,0,40,28,34,0,9,25,5,22,34,0,34,0,0,0,0,6,32,0,0,0,0,0,0,0,0,0,0,0,0],"split_type":[0,0,0,0,0,0,0,0,0,0,0,0,0,0,0,0,0,0,0,0,0,0,0,0,0,0,0,0,0,0,0,0,0,0,0,0,0,0,0,0,0],"sum_hessian":[4.514939E3,4.3974917E3,1.174472E2,4.164308E3,2.331833E2,1.1621487E2,1.232332E0,2.99345E3,1.1708583E3,1.2476977E2,1.08413536E2,8.1948846E2,2.1739614E3,1.1638231E3,7.0351377E0,3.231851E0,1.2153792E2,6.2055767E1,4.635777E1,1.4652068E3,7.0875464E2,1.1515483E3,1.227483E1,3.3485456E0,3.6865919E0,1.20475464E2,1.0624542E0,2.5364737E1,3.669103E1,4.4727486E1,1.6302841E0,3.9258932E2,1.0726174E3,6.939284E2,1.4826231E1,1.7765671E0,1.0498262E1,4.8759375E0,2.04888E1,3.082325E1,5.8677807E0],"tree_param":{"num_deleted":"0","num_feature":"42","num_nodes":"41","size_leaf_vector":"1"}},{"base_weights":[1.26358245E-5,-5.6081768E-2,3.5986933E-1,8.331501E-1,-3.0853868E-1,3.725008E-1,1.3725554E0,5.719822E-1,-3.8104177E-1,8.113885E-1,-5.6287296E-2,1.8565516E0,-5.6105565E-2,2.2872932E0,-1.559875E-1,-4.325229E-1,9.481741E-1,4.2804497E-1,1.7719882E0,2.6759988E-1,2.099126E0,2.602606E0,-4.1791923E-2,6.3014716E-1,-4.355905E-1,9.4371915E-2,-4.9283803E-1,2.836102E-1,-3.0106595E-1,1.189874E-1,-7.950053E-3,6.1989155E-2,2.294149E-1,2.6455364E-1,-1.8597208E-2,1.1486389E-1,2.1752982E-1,5.9646226E-2,2.679461E-1,-4.767437E-2,1.14220455E-1,4.2758055E-2,-5.140937E-2,8.241155E-2,-5.2033287E-2,-5.042215E-2,8.468276E-2,-5.366853E-2,7.4941486E-2],"categories":[],"categories_nodes":[],"categories_segments":[],"categories_sizes":[],"default_left":[0,0,0,0,0,0,0,0,0,0,0,0,0,0,0,0,0,0,0,0,0,0,0,0,0,0,0,0,0,0,0,0,0,0,0,0,0,0,0,0,0,0,0,0,0,0,0,0,0],"id":20,"left_children":[1,-1,3,5,7,9,11,13,15,17,-1,19,-1,21,23,25,27,29,31,33,35,37,-1,39,41,43,45,-1,47,-1,-1,-1,-1,-1,-1,-1,-1,-1,-1,-1,-1,-1,-1,-1,-1,-1,-1,-1,-1],"loss_changes":[9.1268506E2,0E0,8.7170166E2,4.0029236E2,7.316778E1,3.5819104E2,6.960437E2,1.0940781E2,7.269606E1,2.1780026E2,0E0,2.2846362E2,0E0,2.333722E1,1.3956905E1,3.2387344E1,9.4487465E1,1.6463757E2,1.00230835E2,8.660834E1,3.4813232E1,2.0250092E0,0E0,1.0032534E1,3.3712769E0,4.769426E1,1.4354675E1,0E0,6.5394955E0,0E0,0E0,0E0,0E0,0E0,0E0,0E0,0E0,0E0,0E0,0E0,0E0,0E0,0E0,0E0,0E0,0E0,0E0,0E0,0E0],"parents":[2147483647,0,0,2,2,3,3,4,4,5,5,6,6,7,7,8,8,9,9,11,11,13,13,14,14,15,15,16,16,17,17,18,18,19,19,20,20,21,21,23,23,24,24,25,25,26,26,28,28],"right_children":[2,-1,4,6,8,10,12,14,16,18,-1,20,-1,22,24,26,28,30,32,34,36,38,-1,40,42,44,46,-1,48,-1,-1,-1,-1,-1,-1,-1,-1,-1,-1,-1,-1,-1,-1,-1,-1,-1,-1,-1,-1],"split_conditions":[-4.479325E-1,-5.6081768E-2,3.8751323E-2,3.6267016E-2,-3.5430977E-1,-3.2882813E-1,1.1864263E0,-1.1426548E0,2.720364E0,8.261148E-1,-5.6287296E-2,-9.1212153E-1,-5.6105565E-2,-5.397361E-1,-6.734315E-1,-1.3039131E0,9.596648E-1,-1.755629E-1,-5.496521E-1,-5.3355217E-2,-1.3507798E0,-9.562635E-1,-4.1791923E-2,-2.8655732E-2,-2.5778668E0,-6.658033E-1,3.5842843E0,2.836102E-1,-2.1895023E-2,1.189874E-1,-7.950053E-3,6.1989155E-2,2.294149E-1,2.6455364E-1,-1.8597208E-2,1.1486389E-1,2.1752982E-1,5.9646226E-2,2.679461E-1,-4.767437E-2,1.14220455E-1,4.2758055E-2,-5.140937E-2,8.241155E-2,-5.2033287E-2,-5.042215E-2,8.468276E-2,-5.366853E-2,7.4941486E-2],"split_indices":[34,0,39,34,40,34,34,23,8,9,0,5,0,17,7,18,39,22,5,10,2,33,0,34,18,31,5,0,21,0,0,0,0,0,0,0,0,0,0,0,0,0,0,0,0,0,0,0,0],"split_type":[0,0,0,0,0,0,0,0,0,0,0,0,0,0,0,0,0,0,0,0,0,0,0,0,0,0,0,0,0,0,0,0,0,0,0,0,0,0,0,0,0,0,0,0,0,0,0,0,0],"sum_hessian":[4.520305E3,1.7665734E3,2.7537317E3,1.6120432E3,1.1416886E3,8.70409E2,7.4163416E2,8.633203E1,1.0553566E3,5.9252313E2,2.7788583E2,5.931936E2,1.484406E2,2.5084217E1,6.1247814E1,1.01665564E3,3.8700916E1,4.2454636E2,1.6797678E2,7.884343E1,5.1435016E2,2.2499643E1,2.5845726E0,1.573983E1,4.5507984E1,1.0436755E2,9.122881E2,1.4905124E1,2.3795792E1,1.6921269E2,2.5533368E2,5.307005E1,1.1490673E2,1.1855591E1,6.698784E1,3.9354744E1,4.749954E2,1.153397E0,2.1346247E1,5.0001664E0,1.0739664E1,3.423101E0,4.2084885E1,4.7562874E1,5.6804684E1,9.0521985E2,7.0682554E0,1.9835794E1,3.959997E0],"tree_param":{"num_deleted":"0","num_feature":"42","num_nodes":"49","size_leaf_vector":"1"}},{"base_weights":[9.382966E-4,3.7221113E-1,-3.1817257E-1,-5.60445E-2,6.23467E-1,-3.7235168E-1,7.797217E-1,1.0176516E0,-1.1099195E-1,-1.5798181E-1,-4.621654E-1,-5.5279065E-2,1.9438106E0,-2.9954392E-1,1.2430196E0,-5.6082617E-2,1.15103E0,-5.616663E-2,1.1920081E0,-2.752017E-1,-5.0999635E-1,-4.5969483E-2,2.1417227E0,-4.8028684E-1,2.1377604E-1,1.8652194E0,9.204313E-1,2.1056154E-1,-5.5036724E-2,-5.5419225E-2,2.1342912E0,-4.2540112E-1,5.433971E-1,-1.2989509E-1,-5.245699E-1,2.1636744E-1,5.908493E-2,1.6810177E-1,-5.3328957E-2,9.3116716E-2,2.1144699E-1,4.0041856E-2,1.8065473E-1,1.1328031E-1,2.4360147E-1,-5.4307338E-2,4.18559E-3,2.1102853E-1,-5.430272E-2,4.4905074E-2,-4.837049E-2,-5.435977E-2,-3.104945E-2],"categories":[],"categories_nodes":[],"categories_segments":[],"categories_sizes":[],"default_left":[0,0,0,0,0,0,0,0,0,0,0,0,0,0,0,0,0,0,0,0,0,0,0,0,0,0,0,0,0,0,0,0,0,0,0,0,0,0,0,0,0,0,0,0,0,0,0,0,0,0,0,0,0],"id":21,"left_children":[1,3,5,-1,7,9,11,13,15,17,19,-1,21,23,25,-1,27,-1,29,31,33,-1,35,37,-1,39,41,-1,-1,-1,43,45,47,49,51,-1,-1,-1,-1,-1,-1,-1,-1,-1,-1,-1,-1,-1,-1,-1,-1,-1,-1],"loss_changes":[5.355581E2,4.899708E2,1.448899E2,0E0,4.7678186E2,4.4542786E1,1.789065E2,3.1845715E2,3.2760373E2,3.74371E2,1.4459137E1,0E0,3.0196487E1,7.034544E1,1.8196997E2,0E0,2.4748903E2,0E0,2.6143903E2,4.1389633E1,7.1266174E0,0E0,6.592407E-1,1.7771297E1,0E0,7.0552246E1,2.779016E2,0E0,0E0,0E0,2.8346008E1,1.560561E1,9.02405E1,1.0313353E1,4.92511E0,0E0,0E0,0E0,0E0,0E0,0E0,0E0,0E0,0E0,0E0,0E0,0E0,0E0,0E0,0E0,0E0,0E0,0E0],"parents":[2147483647,0,0,1,1,2,2,4,4,5,5,6,6,7,7,8,8,9,9,10,10,12,12,13,13,14,14,16,16,18,18,19,19,20,20,22,22,23,23,25,25,26,26,30,30,31,31,32,32,33,33,34,34],"right_children":[2,4,6,-1,8,10,12,14,16,18,20,-1,22,24,26,-1,28,-1,30,32,34,-1,36,38,-1,40,42,-1,-1,-1,44,46,48,50,52,-1,-1,-1,-1,-1,-1,-1,-1,-1,-1,-1,-1,-1,-1,-1,-1,-1,-1],"split_conditions":[-2.686664E-1,-5.6909347E-1,1.8444718E0,-5.60445E-2,-3.192077E-1,-5.080893E-1,1.0002394E0,-5.348832E-1,1.1864263E0,-5.356057E-1,-6.311209E-1,-5.5279065E-2,-5.9279686E-1,1.0079806E0,-5.1547813E-1,-5.6082617E-2,2.374501E0,-5.616663E-2,-8.7571925E-1,1.6074804E0,-2.0256293E0,-4.5969483E-2,3.896932E-1,-9.869042E-1,2.1377604E-1,-9.411241E-1,-3.8149384E-1,2.1056154E-1,-5.5036724E-2,-5.5419225E-2,-4.4480276E-1,1.5281973E0,1.5445197E0,-3.478767E-1,1.2489796E0,2.1636744E-1,5.908493E-2,1.6810177E-1,-5.3328957E-2,9.3116716E-2,2.1144699E-1,4.0041856E-2,1.8065473E-1,1.1328031E-1,2.4360147E-1,-5.4307338E-2,4.18559E-3,2.1102853E-1,-5.430272E-2,4.4905074E-2,-4.837049E-2,-5.435977E-2,-3.104945E-2],"split_indices":[39,34,6,0,34,34,1,21,34,34,18,0,33,6,34,0,34,0,11,34,2,0,14,22,0,18,34,0,0,0,6,0,2,40,24,0,0,0,0,0,0,0,0,0,0,0,0,0,0,0,0,0,0],"split_type":[0,0,0,0,0,0,0,0,0,0,0,0,0,0,0,0,0,0,0,0,0,0,0,0,0,0,0,0,0,0,0,0,0,0,0,0,0,0,0,0,0,0,0,0,0,0,0,0,0,0,0,0,0],"sum_hessian":[4.518348E3,2.088405E3,2.4299429E3,4.4295093E2,1.6454542E3,2.3162986E3,1.136443E2,1.07052E3,5.7493414E2,6.847286E2,1.63157E3,5.323372E1,6.041058E1,1.5635457E2,9.1416547E2,4.2426505E2,1.5066911E2,5.2755804E2,1.5717056E2,3.337494E2,1.2978206E3,4.495319E0,5.591526E1,1.4630779E2,1.0046787E1,3.1049966E2,6.036658E2,9.636502E1,5.43041E1,5.5230858E1,1.01939705E2,2.824118E2,5.1337593E1,4.828875E1,1.2495317E3,5.4745243E1,1.1700168E0,2.7668662E0,1.4354092E2,6.640109E1,2.4409859E2,3.813338E2,2.2233195E2,2.4702147E1,7.723756E1,2.2546843E2,5.6943367E1,2.0634792E1,3.07028E1,1.8214624E1,3.0074125E1,1.1461211E3,1.0341068E2],"tree_param":{"num_deleted":"0","num_feature":"42","num_nodes":"53","size_leaf_vector":"1"}},{"base_weights":[-2.4181039E-3,-2.0611851E-1,1.7357875E0,1.7965449E0,-3.4572494E-1,2.084899E0,-5.2099854E-1,1.946839E0,1.0860087E-1,-3.84985E-1,1.2282659E0,-4.322246E-2,2.1065412E-1,-5.516817E-2,6.415396E-2,2.0461054E0,9.752752E-1,1.686111E-1,-3.2186988E-1,1.965882E-1,-4.6336663E-1,2.136185E-1,-5.441413E-2,2.0826123E0,3.6550245E-1,-4.171079E-1,1.911362E0,1.385985E-1,-5.2981686E-2,1.3697042E0,-5.3755486E-1,-5.601863E-1,-2.3773171E-1,2.0998144E-1,-3.264507E-2,1.496896E-1,-4.304166E-2,1.7172819E-2,-5.0357707E-2,2.0225632E-1,4.8398416E-2,2.0040563E-1,-4.609525E-2,-5.520783E-2,2.5712276E-2,-5.6231406E-2,-3.113564E-2,1.903495E-1,-5.588446E-2],"categories":[],"categories_nodes":[],"categories_segments":[],"categories_sizes":[],"default_left":[0,0,0,0,0,0,0,0,0,0,0,0,0,0,0,0,0,0,0,0,0,0,0,0,0,0,0,0,0,0,0,0,0,0,0,0,0,0,0,0,0,0,0,0,0,0,0,0,0],"id":22,"left_children":[1,3,5,7,9,11,13,15,17,19,21,-1,-1,-1,-1,23,25,-1,27,29,31,-1,-1,33,35,37,39,-1,-1,41,43,45,47,-1,-1,-1,-1,-1,-1,-1,-1,-1,-1,-1,-1,-1,-1,-1,-1],"loss_changes":[1.6008651E3,1.1321013E3,3.7474915E2,6.673547E1,2.3431177E2,2.3296509E1,2.64888E0,2.1368896E1,1.591355E1,1.6842523E2,1.4973785E2,0E0,0E0,0E0,0E0,1.2668579E1,3.2558693E1,0E0,7.3478947E0,3.7906546E2,7.096417E1,0E0,0E0,9.554932E0,5.9271827E0,6.270734E-1,1.3624725E0,0E0,0E0,1.9761255E2,3.2686996E0,1.0301514E0,6.741495E2,0E0,0E0,0E0,0E0,0E0,0E0,0E0,0E0,0E0,0E0,0E0,0E0,0E0,0E0,0E0,0E0],"parents":[2147483647,0,0,1,1,2,2,3,3,4,4,5,5,6,6,7,7,8,8,9,9,10,10,15,15,16,16,18,18,19,19,20,20,23,23,24,24,25,25,26,26,29,29,30,30,31,31,32,32],"right_children":[2,4,6,8,10,12,14,16,18,20,22,-1,-1,-1,-1,24,26,-1,28,30,32,-1,-1,34,36,38,40,-1,-1,42,44,46,48,-1,-1,-1,-1,-1,-1,-1,-1,-1,-1,-1,-1,-1,-1,-1,-1],"split_conditions":[1.6979613E0,-6.932515E-1,3.3007908E0,-1.16001174E-1,2.849005E0,-1.3396529E0,6.8837583E-1,7.2565436E-1,-6.99694E-1,-6.3747865E-1,-1.1784451E0,-4.322246E-2,2.1065412E-1,-5.516817E-2,6.415396E-2,2.059297E0,-1.6437288E-1,1.686111E-1,1.0929239E0,-5.836617E-1,-2.2524075E-1,2.136185E-1,-5.441413E-2,1.971224E0,-7.232821E-1,-4.9531278E-1,1.9810575E-1,1.385985E-1,-5.2981686E-2,-9.282863E-2,1.8765576E0,1.4636217E0,-1.3507244E-1,2.0998144E-1,-3.264507E-2,1.496896E-1,-4.304166E-2,1.7172819E-2,-5.0357707E-2,2.0225632E-1,4.8398416E-2,2.0040563E-1,-4.609525E-2,-5.520783E-2,2.5712276E-2,-5.6231406E-2,-3.113564E-2,1.903495E-1,-5.588446E-2],"split_indices":[34,36,34,39,39,35,40,10,34,34,19,0,0,0,0,31,14,0,0,13,34,0,0,14,34,21,2,0,0,39,41,10,34,0,0,0,0,0,0,0,0,0,0,0,0,0,0,0,0],"split_type":[0,0,0,0,0,0,0,0,0,0,0,0,0,0,0,0,0,0,0,0,0,0,0,0,0,0,0,0,0,0,0,0,0,0,0,0,0,0,0,0,0,0,0,0,0,0,0,0,0],"sum_hessian":[4.519273E3,4.046003E3,4.7326987E2,2.628946E2,3.7831084E3,4.09932E2,6.3337887E1,2.4125952E2,2.1635075E1,3.6917798E3,9.132867E1,3.3328443E0,4.0659915E2,6.222112E1,1.1167676E0,2.1789122E2,2.3368309E1,4.012801E0,1.7622274E1,4.3828677E2,3.253493E3,6.025677E1,3.1071894E1,2.1302458E2,4.8666377E0,9.617365E0,1.3750945E1,1.2978697E0,1.6324406E1,1.6837231E2,2.6991446E2,2.275567E3,9.779262E2,2.116417E2,1.3828781E0,1.6460603E0,3.2205775E0,1.1051984E0,8.512167E0,1.2370251E1,1.3806942E0,1.24972595E2,4.3399723E1,2.6536987E2,4.544598E0,2.255025E3,2.054198E1,1.26888405E2,8.510378E2],"tree_param":{"num_deleted":"0","num_feature":"42","num_nodes":"49","size_leaf_vector":"1"}},{"base_weights":[2.3722085E-3,3.306788E-1,-3.525905E-1,-4.884159E-1,6.536093E-1,1.3251529E0,-4.4814485E-1,1.3090724E0,-5.1139575E-1,-5.6502085E-2,8.2917523E-1,-4.9033692E-1,2.047373E0,-5.6179173E-2,-2.7618217E-1,-3.1820625E-2,1.612639E0,-5.4028076E-1,7.585966E-2,-5.1144415E-1,9.4066E-1,6.5790355E-2,-5.473847E-2,-3.9917383E-2,2.1247344E-1,1.2619578E0,-4.1228595E-1,1.9818382E-1,3.201141E-2,1.19545594E-1,-5.450036E-1,-5.3847857E-2,1.7132037E0,-5.547983E-1,1.367312E-1,1.8818088E0,6.896316E-1,-5.370711E-2,2.175027E-1,-4.6539903E-1,1.3928472E0,5.0757434E-2,-5.4814126E-2,2.3084526E-1,-3.6620934E-2,3.269301E-2,-5.723672E-2,2.2062655E-1,-1.8692365E-2,1.7747238E-1,4.1746005E-2,-5.053996E-2,7.102641E-2,2.1591346E-1,-3.568464E-2],"categories":[],"categories_nodes":[],"categories_segments":[],"categories_sizes":[],"default_left":[0,0,0,0,0,0,0,0,0,0,0,0,0,0,0,0,0,0,0,0,0,0,0,0,0,0,0,0,0,0,0,0,0,0,0,0,0,0,0,0,0,0,0,0,0,0,0,0,0,0,0,0,0,0,0],"id":23,"left_children":[1,3,5,7,9,11,13,15,17,-1,19,21,23,-1,25,-1,27,29,31,33,35,-1,-1,-1,-1,37,39,-1,-1,-1,41,-1,43,45,-1,47,49,-1,-1,51,53,-1,-1,-1,-1,-1,-1,-1,-1,-1,-1,-1,-1,-1,-1],"loss_changes":[5.2648975E2,6.211322E2,3.4860397E2,2.8106537E1,3.6071405E2,1.5470795E2,3.99971E1,4.793868E0,1.11783905E1,0E0,2.2050769E2,2.5983248E0,1.6757477E1,0E0,1.7207877E2,0E0,2.929327E0,5.7825165E0,3.2766277E1,1.0017395E1,3.1988733E2,0E0,0E0,0E0,0E0,1.11003426E2,7.290335E1,0E0,0E0,0E0,2.342041E0,0E0,1.1832342E1,1.9193192E0,0E0,1.9216382E2,3.1668295E2,0E0,0E0,3.4822266E1,2.9987118E1,0E0,0E0,0E0,0E0,0E0,0E0,0E0,0E0,0E0,0E0,0E0,0E0,0E0,0E0],"parents":[2147483647,0,0,1,1,2,2,3,3,4,4,5,5,6,6,7,7,8,8,10,10,11,11,12,12,14,14,16,16,17,17,18,18,19,19,20,20,25,25,26,26,30,30,32,32,33,33,35,35,36,36,39,39,40,40],"right_children":[2,4,6,8,10,12,14,16,18,-1,20,22,24,-1,26,-1,28,30,32,34,36,-1,-1,-1,-1,38,40,-1,-1,-1,42,-1,44,46,-1,48,50,-1,-1,52,54,-1,-1,-1,-1,-1,-1,-1,-1,-1,-1,-1,-1,-1,-1],"split_conditions":[-4.3423203E-1,-6.429363E-1,-1.4308921E0,-1.4810233E0,-6.817921E-1,-2.676693E-1,3.9699337E-1,-1.797308E-2,1.5992788E0,-5.6502085E-2,-1.0296565E0,-2.3296152E-1,1.6905771E0,-5.6179173E-2,4.6649534E-1,-3.1820625E-2,6.98798E-1,-7.6244086E-1,-6.9289404E-1,1.339776E-1,-6.053767E-1,6.5790355E-2,-5.473847E-2,-3.9917383E-2,2.1247344E-1,1.5281973E0,1.4636217E0,1.9818382E-1,3.201141E-2,1.19545594E-1,-1.9256625E0,-5.3847857E-2,-1.0834429E0,-1.0750281E0,1.367312E-1,-5.0180846E-1,-9.1606027E-1,-5.370711E-2,2.175027E-1,1.7579751E0,-6.191779E-1,5.0757434E-2,-5.4814126E-2,2.3084526E-1,-3.6620934E-2,3.269301E-2,-5.723672E-2,2.2062655E-1,-1.8692365E-2,1.7747238E-1,4.1746005E-2,-5.053996E-2,7.102641E-2,2.1591346E-1,-3.568464E-2],"split_indices":[36,17,5,18,34,21,34,10,37,0,32,12,3,0,34,0,13,21,11,40,8,0,0,0,0,0,10,0,0,0,22,0,0,4,0,31,6,0,0,31,2,0,0,0,0,0,0,0,0,0,0,0,0,0,0],"split_type":[0,0,0,0,0,0,0,0,0,0,0,0,0,0,0,0,0,0,0,0,0,0,0,0,0,0,0,0,0,0,0,0,0,0,0,0,0,0,0,0,0,0,0,0,0,0,0,0,0,0,0,0,0,0,0],"sum_hessian":[4.515805E3,2.3460247E3,2.1697803E3,6.632405E2,1.6827842E3,1.1622547E2,2.053555E3,7.665642E0,6.555748E2,2.1162746E2,1.4711567E3,3.3168587E1,8.3056885E1,1.23506E3,8.1849475E2,1.1976068E0,6.468035E0,6.2491736E2,3.0657513E1,1.126721E2,1.3584846E3,1.0713933E0,3.2097195E1,2.4183087E0,8.063857E1,6.586518E1,7.526295E2,4.6161594E0,1.8518754E0,1.0115875E0,6.2390576E2,2.2781084E1,7.876429E0,1.1081953E2,1.852572E0,2.8467865E2,1.073806E3,2.2313156E1,4.355203E1,7.3183856E2,2.079097E1,1.3764669E0,6.225293E2,6.0378885E0,1.8385407E0,1.8209946E0,1.0899853E2,2.460259E2,3.8652775E1,2.1422284E2,8.595831E2,7.083093E2,2.3529257E1,1.4295968E1,6.495001E0],"tree_param":{"num_deleted":"0","num_feature":"42","num_nodes":"55","size_leaf_vector":"1"}},{"base_weights":[-9.432214E-4,-4.2654392E-1,3.1862494E-1,-4.7078678E-1,7.343654E-1,-1.0745293E-1,7.008169E-1,-5.3457737E-1,-3.1871963E-1,1.5157219E0,-8.536434E-2,7.933058E-1,-3.9396346E-1,-6.9542326E-2,8.501403E-1,-4.224643E-1,-5.4697293E-1,5.7635546E-1,-3.9663327E-1,1.7028316E0,-4.1889496E-2,1.2248694E0,-5.011815E-1,-5.522212E-2,1.2599317E0,-5.5829722E-2,-1.9762379E-1,-1.7842683E-1,1.1415287E0,1.0242746E0,-1.658643E-1,-4.751807E-1,2.4057141E-1,-4.558118E-1,-5.5342233E-1,-4.7369286E-1,1.258885E0,-2.4369109E-1,-5.556744E-2,5.23657E-2,1.7326096E-1,-3.36926E-2,1.5943436E-1,-5.3537168E-2,1.5448846E-2,1.518637E0,-2.9489386E-1,1.2117798E0,-5.563823E-2,-2.5145763E-1,1.4615256E0,1.5336299E0,-4.5494016E-2,1.1212741E0,-5.496743E-2,7.97035E-1,-5.599136E-2,2.9232187E-2,-5.286134E-2,-3.7679743E-2,1.8354492E-1,-5.2435677E-2,4.638934E-2,-2.6626289E-2,-5.5521626E-2,-5.2648198E-2,2.1156954E-2,-3.1796385E-2,1.6663134E-1,-3.7786726E-2,2.0710845E-1,-5.2183103E-2,1.6810559E-1,-4.7587488E-2,1.7447136E-1,2.0242138E-1,-1.2483261E-2,-2.9670907E-2,1.6647528E-1,1.4998394E-2,1.6386162E-1,-3.1448968E-2,1.7142577E-1,6.039256E-2,1.4290155E-1,-1.6214639E-3,1.556933E-1],"categories":[],"categories_nodes":[],"categories_segments":[],"categories_sizes":[],"default_left":[0,0,0,0,0,0,0,0,0,0,0,0,0,0,0,0,0,0,0,0,0,0,0,0,0,0,0,0,0,0,0,0,0,0,0,0,0,0,0,0,0,0,0,0,0,0,0,0,0,0,0,0,0,0,0,0,0,0,0,0,0,0,0,0,0,0,0,0,0,0,0,0,0,0,0,0,0,0,0,0,0,0,0,0,0,0,0],"id":24,"left_children":[1,3,5,7,9,11,13,15,17,19,21,23,25,27,29,31,33,35,37,39,-1,41,43,-1,45,-1,47,49,51,53,55,57,59,61,63,65,67,69,-1,-1,-1,-1,-1,-1,-1,71,73,75,-1,77,79,81,-1,83,-1,85,-1,-1,-1,-1,-1,-1,-1,-1,-1,-1,-1,-1,-1,-1,-1,-1,-1,-1,-1,-1,-1,-1,-1,-1,-1,-1,-1,-1,-1,-1,-1],"loss_changes":[6.0758246E2,9.874451E1,4.155627E2,1.7737335E1,4.5426956E1,3.1189545E2,1.5479248E2,1.5741577E0,3.8447376E1,1.3839577E1,1.9933235E1,1.8383081E2,2.9465393E1,2.9125298E1,1.9952509E2,4.788212E0,4.335022E-1,3.2339897E1,1.2141861E1,2.6062775E-1,0E0,5.63418E0,7.020421E-1,0E0,8.768576E1,0E0,2.1263593E2,2.4572056E1,1.2107693E1,1.4749811E2,6.332833E1,5.2482376E0,1.1042593E1,5.4587364E0,4.1085815E-1,7.688546E-1,1.7951256E1,8.125068E1,0E0,0E0,0E0,0E0,0E0,0E0,0E0,6.2553955E1,1.2559694E1,9.295644E1,0E0,1.7344896E1,1.7895279E0,5.5004463E0,0E0,1.4346912E2,0E0,3.0021658E1,0E0,0E0,0E0,0E0,0E0,0E0,0E0,0E0,0E0,0E0,0E0,0E0,0E0,0E0,0E0,0E0,0E0,0E0,0E0,0E0,0E0,0E0,0E0,0E0,0E0,0E0,0E0,0E0,0E0,0E0,0E0],"parents":[2147483647,0,0,1,1,2,2,3,3,4,4,5,5,6,6,7,7,8,8,9,9,10,10,11,11,12,12,13,13,14,14,15,15,16,16,17,17,18,18,19,19,21,21,22,22,24,24,26,26,27,27,28,28,29,29,30,30,31,31,32,32,33,33,34,34,35,35,36,36,37,37,45,45,46,46,47,47,49,49,50,50,51,51,53,53,55,55],"right_children":[2,4,6,8,10,12,14,16,18,20,22,24,26,28,30,32,34,36,38,40,-1,42,44,-1,46,-1,48,50,52,54,56,58,60,62,64,66,68,70,-1,-1,-1,-1,-1,-1,-1,72,74,76,-1,78,80,82,-1,84,-1,86,-1,-1,-1,-1,-1,-1,-1,-1,-1,-1,-1,-1,-1,-1,-1,-1,-1,-1,-1,-1,-1,-1,-1,-1,-1,-1,-1,-1,-1,-1,-1],"split_conditions":[-7.424392E-2,1.9890893E0,-3.0046698E-1,-3.8377762E-1,1.2187165E-1,-5.9792924E-1,-5.0249845E-1,-3.053959E-1,-6.604258E-1,-2.4202622E-1,-1.5179863E0,1.0002394E0,-3.2882813E-1,2.6190653E-2,1.6410264E0,7.0685387E-1,-4.46278E-1,-6.9784975E-1,3.159839E-1,-1.1717046E0,-4.1889496E-2,-1.347818E0,1.4774586E0,-5.522212E-2,7.051601E-1,-5.5829722E-2,-2.9808125E-1,1.6538434E0,1.3004972E-1,1.6780716E0,-6.604258E-1,-6.604258E-1,1.8573329E-1,1.863012E-1,-2.1640255E0,5.8072245E-1,-5.09608E-1,1.5472537E-1,-5.556744E-2,5.23657E-2,1.7326096E-1,-3.36926E-2,1.5943436E-1,-5.3537168E-2,1.5448846E-2,-1.2241776E0,-4.0021566E-1,3.2596394E-2,-5.563823E-2,1.8222734E0,4.3621314E-1,-3.6085302E-1,-4.5494016E-2,-3.8149384E-1,-5.496743E-2,1.9101683E0,-5.599136E-2,2.9232187E-2,-5.286134E-2,-3.7679743E-2,1.8354492E-1,-5.2435677E-2,4.638934E-2,-2.6626289E-2,-5.5521626E-2,-5.2648198E-2,2.1156954E-2,-3.1796385E-2,1.6663134E-1,-3.7786726E-2,2.0710845E-1,-5.2183103E-2,1.6810559E-1,-4.7587488E-2,1.7447136E-1,2.0242138E-1,-1.2483261E-2,-2.9670907E-2,1.6647528E-1,1.4998394E-2,1.6386162E-1,-3.1448968E-2,1.7142577E-1,6.039256E-2,1.4290155E-1,-1.6214639E-3,1.556933E-1],"split_indices":[6,39,40,6,18,34,41,22,34,3,2,1,34,23,41,39,30,34,4,15,0,11,5,0,17,0,34,35,2,34,34,34,11,32,2,2,11,27,0,0,0,0,0,0,0,15,9,15,0,14,6,34,0,34,0,31,0,0,0,0,0,0,0,0,0,0,0,0,0,0,0,0,0,0,0,0,0,0,0,0,0,0,0,0,0,0,0],"split_type":[0,0,0,0,0,0,0,0,0,0,0,0,0,0,0,0,0,0,0,0,0,0,0,0,0,0,0,0,0,0,0,0,0,0,0,0,0,0,0,0,0,0,0,0,0,0,0,0,0,0,0,0,0,0,0,0,0,0,0,0,0,0,0,0,0,0,0,0,0,0,0,0,0,0,0,0,0,0,0,0,0,0,0,0,0,0,0],"sum_hessian":[4.465242E3,1.9147905E3,2.5504517E3,1.8450684E3,6.972207E1,1.206326E3,1.3441257E3,1.2980392E3,5.4702924E2,3.526185E1,3.446022E1,2.906824E2,9.156436E2,2.1832437E2,1.1258013E3,1.3272002E2,1.1653192E3,4.329197E1,5.0373724E2,3.226144E1,3.0004106E0,7.832967E0,2.6627254E1,7.4802925E1,2.1587949E2,4.97445E2,4.1819858E2,2.010969E2,1.7227472E1,9.610735E2,1.6472781E2,1.2320741E2,9.512603E0,8.17315E1,1.0835876E3,1.717492E1,2.6117048E1,2.5808325E2,2.4565399E2,1.2524166E0,3.1009022E1,1.5153908E0,6.317576E0,2.548196E1,1.1452944E0,1.8510364E2,3.0775854E1,8.436968E1,3.338289E2,1.9333397E2,7.762932E0,1.3862203E1,3.3652687E0,9.055536E2,5.551995E1,4.7538933E1,1.1718887E2,7.728274E0,1.1547914E2,7.4085402E0,2.1040623E0,7.6462654E1,5.268842E0,7.654955E0,1.0759327E3,1.6161617E1,1.0133013E0,5.4076567E0,2.070939E1,2.44734E2,1.3349269E1,1.3484545E1,1.716191E2,2.8971777E1,1.804077E0,5.2154278E1,3.2215405E1,1.8969936E2,3.6346054E0,1.1432083E0,6.6197233E0,1.1682274E0,1.2693975E1,3.3885764E2,5.666959E2,2.3436087E1,2.4102848E1],"tree_param":{"num_deleted":"0","num_feature":"42","num_nodes":"87","size_leaf_vector":"1"}},{"base_weights":[-1.0586937E-3,-3.6505595E-1,4.684172E-1,-1.4804004E-2,-5.323386E-1,1.4408975E0,1.11840375E-1,-5.099994E-1,1.4544215E0,-3.6352E-1,-5.547469E-1,1.5201004E0,-4.5577058E-1,-4.663152E-1,9.6714115E-1,-5.424677E-1,3.787398E-1,9.122815E-1,1.9776144E0,-5.514238E-1,1.3749579E0,-5.5724066E-2,-4.610819E-1,-1.8211946E-1,1.5854001E0,2.418904E-2,-5.4256182E-2,1.4132288E-1,-5.0773406E-1,1.3603349E0,-5.526656E-2,-5.5400528E-2,-1.6736776E-1,-5.196613E-2,1.6949232E-1,1.8033014E-1,-5.108672E-1,2.3201566E0,1.803281E0,1.6897736E-2,-5.5677004E-2,1.6626391E0,-1.8336457E-1,1.130229E-1,-5.4572094E-2,1.4992988E-1,-5.2508064E-2,1.129106E0,1.7767025E0,1.5917228E0,-5.466733E-2,-5.415482E-1,-9.2586696E-2,1.5724754E0,4.7982338E-1,1.4785238E-1,-5.24957E-2,6.4260714E-2,-5.5781763E-2,2.385931E-1,4.9622912E-2,1.8226318E-1,6.636033E-2,1.772804E-1,1.1708815E-2,-3.8278442E-2,2.0111829E-2,1.8613152E-1,-5.067262E-2,1.786549E-1,8.749009E-2,1.7505682E-1,-3.2209825E-2,-3.4684043E-2,-5.5151094E-2,1.3686441E-1,-5.2798416E-2,-3.584062E-2,1.6573212E-1,-3.377936E-2,1.411636E-1],"categories":[],"categories_nodes":[],"categories_segments":[],"categories_sizes":[],"default_left":[0,0,0,0,0,0,0,0,0,0,0,0,0,0,0,0,0,0,0,0,0,0,0,0,0,0,0,0,0,0,0,0,0,0,0,0,0,0,0,0,0,0,0,0,0,0,0,0,0,0,0,0,0,0,0,0,0,0,0,0,0,0,0,0,0,0,0,0,0,0,0,0,0,0,0,0,0,0,0,0,0],"id":25,"left_children":[1,3,5,7,9,11,13,15,17,19,21,23,25,27,29,31,33,35,37,39,41,-1,